surface,embedding
the,-1.152845 0.275607 -0.391811 -0.434914 0.173855 0.164284 -0.180014 -0.048521 -0.055258 -0.010415 -0.161953 2.174772 1.141270 0.535407 -0.204851 0.103911
.,-1.733530 1.646922 0.378510 -1.544891 0.004857 -0.777745 -0.898909 1.282262 -0.514574 -1.053726 -1.040399 -0.904341 -0.719197 -0.333818 -0.693812 -0.547698
to,-0.162695 0.507389 -0.041981 -0.359466 0.187858 0.894047 -0.238830 -0.187221 -0.296764 0.156279 0.985856 -0.236952 -0.915315 1.720319 -0.369380 -0.134982
and,0.193134 0.952611 0.020015 -0.331099 0.502508 0.814797 -1.244433 1.305464 -0.766654 -0.028299 -0.861984 -0.382056 0.600613 -1.443425 1.299352 0.720469
a,-1.125810 0.462455 -0.309293 -0.696285 0.494545 0.116362 -0.011742 0.181149 -0.176643 -0.046545 -0.113353 2.291810 0.952205 0.425899 -0.001422 -0.150865
of,-0.408044 0.019221 0.304727 -0.093856 -0.502979 -0.372297 -0.610009 -0.603212 -0.472755 0.031967 1.698509 0.241817 0.010355 1.763100 0.504719 -0.204724
i,0.945367 0.715783 -0.504475 0.101927 1.015570 1.657860 -0.162486 -0.023892 2.241398 -0.117249 -0.038457 -0.300676 -0.020032 0.026784 -0.246944 1.034218
in,-0.909064 -0.051161 0.366945 -0.281116 -0.270414 -0.381155 -0.562233 -0.670050 -0.511667 -0.028967 1.609415 0.718284 -0.066186 1.467610 0.560434 -0.269112
is,1.281824 0.771706 1.081386 0.365147 -1.089943 -0.681894 -0.115341 0.162003 -0.474102 -0.205063 0.371115 -1.000846 -0.200703 1.039526 0.702485 0.149298
you,-0.042541 0.162600 -0.556830 -0.096845 1.144040 1.455546 -0.155918 -0.309552 2.048170 0.108242 0.414617 -0.280471 0.633561 0.244064 -0.331551 0.850299
that,-0.877374 -0.295176 -0.277132 -0.388558 0.759511 1.287811 -0.462065 -0.467535 1.209930 0.146308 0.661367 0.462814 0.262226 0.900082 0.383930 0.568934
it,0.076749 0.151719 -0.288885 0.300545 0.987152 0.626554 -0.037331 -0.223306 2.157656 0.116742 0.046229 -0.112129 0.366122 -0.352873 -0.437964 0.428484
for,-0.915798 -0.120959 0.354539 -0.402135 -0.294193 -0.231566 -0.661897 -0.776702 -0.301935 0.119949 1.759817 0.558458 -0.010233 1.482797 0.688975 -0.143696
-,-0.556877 0.816638 -0.078013 -0.229884 -0.508565 -0.085037 -0.981711 0.137318 -1.163606 -0.628972 -0.918955 -0.793409 0.097647 -0.318372 0.529595 -0.433862
have,1.985715 0.626509 0.844396 0.412961 -0.217097 -0.269232 0.844485 0.205282 0.537455 0.065801 -0.057864 -0.746843 -0.336144 0.661980 0.726309 -0.541327
",-1.189077 0.912948 0.406611 -0.611168 -0.056683 0.353877 -0.926207 0.712649 -1.138229 -0.862866 -1.085923 -0.249256 -0.187321 -0.201817 0.353987 -0.402127
on,-0.839864 -0.091122 0.405526 -0.252334 -0.381595 -0.437002 -0.433614 -0.662797 -0.503001 0.005942 1.718639 0.527790 0.027376 1.272368 0.769321 -0.166773
was,1.530136 0.768508 0.861223 0.401995 -0.998313 -0.448709 0.170386 0.122693 -0.357245 -0.229148 0.287676 -0.927048 -0.343988 1.219256 0.435423 0.056724
with,-0.751922 -0.228393 0.226973 -0.264935 -0.571499 -0.303875 -0.479282 -0.803028 -0.309722 0.144586 1.732982 0.229037 0.122463 1.181201 0.804299 -0.021979
this,-0.675298 -0.004830 -0.573128 -0.092013 0.152750 0.440451 -0.123203 -0.425106 0.969684 -0.038620 -0.045960 0.926214 1.038448 -0.075674 -0.335365 0.470365
be,1.561942 0.802680 0.671118 0.170191 -0.880745 -0.402878 0.065511 0.178701 -0.315387 -0.407151 -0.030269 -1.148147 -0.338115 1.280237 0.833169 -0.417629
are,1.143045 0.926940 0.884764 0.397522 -1.048672 -0.433131 -0.320278 0.197105 -0.505951 -0.275041 -0.104745 -1.270182 -0.300426 0.968648 0.606742 0.081171
they,0.742845 0.641604 -0.690300 -0.167161 2.090962 1.771699 -0.248355 0.280820 3.067241 0.087237 -0.043411 -0.100878 0.919489 -0.278119 -0.307723 1.343484
not,-1.065331 1.380647 0.803665 -0.426548 0.793192 0.966649 -0.449576 0.572598 -1.268770 -0.600215 -0.548149 0.475962 -1.538915 1.197143 -0.189078 -0.736371
as,-1.134881 -0.223795 0.630130 -0.324257 0.626822 0.589396 -0.623394 -0.237670 -0.573708 0.352929 1.121378 1.255487 -0.690629 1.682047 0.676684 -0.223249
we,0.517893 0.480709 -0.579309 -0.086410 1.157684 1.806895 -0.118409 -0.157192 2.271405 -0.118332 0.084397 -0.268335 0.181254 0.028083 -0.392421 0.920990
's,0.546502 0.655019 0.362228 0.287424 -0.793923 -0.545235 -0.846951 0.005249 -0.914410 -0.276953 -0.071913 -1.337272 -0.041034 0.962373 0.341898 -0.272979
my,-0.041113 0.309643 -1.018549 -0.737895 1.411808 0.156131 0.062218 0.480583 1.543788 0.231527 -0.785449 1.511536 2.772365 -1.204726 0.235719 1.307334
),-1.048025 0.760198 0.682646 -0.718376 -0.515026 -0.273056 -1.724087 0.878006 -0.873778 -0.897521 -1.406898 -2.242213 -0.025414 -0.477641 0.325449 -0.406234
(,-0.691189 0.964194 0.306712 -0.354043 -0.296133 0.236217 -1.282800 0.483026 -1.166545 -0.521617 -0.922448 -1.051458 -0.043953 -0.462877 0.891621 -0.304996
do,1.008552 1.525870 0.692955 0.988345 -0.628618 -0.422544 0.879166 0.197033 0.750728 1.297383 -0.113326 -0.686325 -0.850917 0.381819 -0.006226 0.160402
will,1.282111 1.870244 -0.003070 0.536920 -0.180969 0.820166 0.483557 0.150453 0.831960 0.349828 0.163836 -0.921623 -0.834377 1.093625 -0.690163 0.447189
he,0.544609 0.313773 -0.478640 -0.198810 1.560522 1.708155 -0.170533 0.139142 2.700003 -0.120444 0.011566 -0.155283 0.649401 -0.311391 -0.479635 0.894749
at,-0.718962 -0.021812 0.421442 -0.309759 -0.382697 -0.568507 -0.572769 -0.926064 -0.306174 0.132423 1.848562 0.316016 0.084050 1.262605 0.649431 -0.079436
?,-0.903365 1.794193 0.318772 -1.408486 -0.229160 -0.881244 -1.776709 1.538544 -0.542625 -0.857144 -1.075215 -2.180437 -0.301508 -1.155506 -0.210434 0.042636
but,0.468847 0.501461 0.407927 0.025808 0.124963 1.144111 -1.148749 1.546033 -0.557344 0.110571 -1.074671 -0.860787 0.046690 -1.233984 1.985158 0.388625
if,-0.857175 -1.080566 -0.404874 -0.368879 0.359706 2.079207 -1.079409 -0.421231 1.438753 0.740635 1.023115 0.264488 0.011098 1.422614 1.486798 1.208410
or,0.172860 1.155061 0.105068 -0.323476 0.595420 0.319534 -1.325674 1.101094 -0.656278 0.104785 -0.735155 -0.426118 0.589306 -1.431768 0.998537 0.803567
your,-0.193857 0.310002 -0.982520 -0.761981 1.263504 0.361745 0.053749 0.583378 1.230670 0.175423 -0.656613 1.410680 2.500808 -0.971569 0.115546 1.095434
from,-1.112445 -0.082589 0.289186 -0.351743 -0.274033 -0.279669 -0.689641 -0.887905 -0.242998 0.101532 1.670636 0.717648 0.011863 1.594408 0.572524 -0.180189
n't,-1.103746 1.748134 0.435013 -0.655553 0.925664 1.802274 -0.224039 0.796235 -1.317967 -0.673277 -0.557681 0.301170 -1.875968 1.814713 -0.834703 -0.908557
by,-1.202866 0.105870 0.220484 -0.451422 -0.028238 -0.261063 -0.666705 -0.807848 -0.324935 0.061906 1.440456 1.011130 -0.096480 1.635232 0.369662 -0.281546
can,1.178511 0.906730 0.088492 0.335382 -0.533736 0.880466 0.557449 0.368220 0.272219 0.215072 0.252874 -1.072338 -0.827773 1.169621 -0.344691 0.243665
would,1.342774 1.625791 0.025296 0.882727 -0.057762 0.712204 0.533873 0.198518 1.136703 0.499616 0.009429 -0.920966 -0.738423 1.162585 -0.278393 0.477112
me,-0.657602 -0.110807 -0.087823 -0.581060 1.133206 0.136029 -0.151070 -0.586317 1.911829 0.608694 0.569959 0.070610 1.146378 0.057702 0.030122 0.779003
:,-1.071839 1.386061 0.083418 -0.768224 -0.253503 -0.139568 -1.427716 0.747752 -1.052020 -0.787193 -1.329279 -1.206111 0.114378 -0.842600 0.476017 -0.182314
there,-1.382373 0.784359 0.521390 0.000323 1.492781 1.351478 -0.213083 0.900259 1.256805 -0.739527 -0.364619 1.588445 -0.042756 0.053079 -0.856309 0.550798
so,-0.762448 -0.259187 0.384170 -0.362122 0.567855 1.330721 -0.204225 0.507745 -0.357609 0.157710 0.376396 1.166834 -0.890006 0.905471 0.565070 -0.026820
!,-1.843828 1.929715 0.496894 -1.678864 -0.150945 -0.803529 -1.341434 1.192870 -0.542557 -1.332508 -1.396611 -1.592799 -0.658803 -0.376426 -0.471977 -0.689620
all,-1.037631 -0.070753 0.331415 0.010391 0.508456 0.214088 0.036898 0.010373 0.009060 -0.131797 0.163162 1.622796 0.687377 0.145136 0.475839 0.064210
has,2.014435 1.162028 0.573952 0.518300 -0.199513 -0.123108 0.679850 0.219875 0.523758 -0.081138 -0.328080 -1.043639 -0.426927 0.817957 0.395515 -0.413955
an,-1.463745 0.363780 -0.371307 -0.749478 0.654326 0.235302 -0.457230 -0.287151 0.238562 -0.041779 -0.012339 2.361537 0.873611 1.085963 -0.310436 -0.122419
had,1.963260 0.588775 0.871850 0.362444 -0.115335 -0.392751 0.791349 0.264362 0.440171 -0.019932 -0.038692 -0.701228 -0.275068 0.551485 0.954114 -0.531944
one,0.142641 -0.277252 -0.331265 0.620592 0.352422 0.035391 0.594302 0.365258 0.576375 -0.082352 -0.483984 0.610825 0.844265 -1.201040 0.114897 0.062317
out,-1.284737 -0.572038 0.450428 0.456690 0.113982 -0.116589 -0.227913 -0.608617 -0.147350 -0.022176 0.559152 0.874436 -0.259768 0.699514 -0.027714 -0.432494
about,-0.936760 0.060680 0.198395 -0.434719 0.148539 -0.065334 -0.504914 -0.180084 -0.629506 0.097043 1.440898 1.010832 -0.565375 1.584500 0.799756 -0.406072
what,-0.248682 -0.399411 -0.791234 0.100749 0.292827 1.369839 -0.003700 -0.165705 1.553819 0.246787 0.160758 0.051525 0.479561 0.117480 0.605596 0.493293
their,-0.302528 0.638729 -1.024229 -0.832932 1.517820 0.388124 -0.083262 0.612428 1.412119 0.088367 -0.449687 1.420265 2.474740 -0.771647 0.058259 1.210486
like,-0.148560 -0.512987 -0.101546 -0.114547 -0.311566 0.335256 -0.259542 -0.833892 0.458166 0.494209 1.028861 -0.237342 -0.176089 0.524061 0.805807 0.194756
time,-0.680487 -0.756882 0.212744 0.193266 -0.720408 0.288481 0.671602 0.394629 -0.157878 -0.113144 0.101962 0.129464 -0.198954 -0.452623 -0.246434 -0.110388
were,1.384863 0.801844 0.545183 0.321741 -0.807310 -0.255531 0.280644 0.145064 -0.247614 -0.086573 0.306359 -0.848634 -0.572067 0.875925 0.194712 0.034726
when,-1.355588 -0.410261 0.129180 -0.167252 0.477612 2.569083 -0.300168 0.775961 -0.782559 0.009736 0.439745 1.659627 -1.368723 2.001623 1.205035 -0.490724
up,-1.328122 -0.393108 0.317865 0.155921 -0.067826 -0.120854 -0.059639 -0.543976 -0.066161 0.015154 0.532659 0.807698 -0.160155 0.535948 -0.051190 -0.397192
get,1.298015 0.103341 0.811690 0.328234 -0.262447 -0.508698 0.566424 0.379753 -0.120316 0.164421 0.210525 -0.486682 0.179294 0.320011 1.724499 -0.402971
just,-0.935315 0.958771 0.749429 -0.362683 0.775111 1.331805 -0.032616 0.616954 -1.236730 -0.548088 -0.292979 1.159486 -1.344334 1.041328 -0.108925 -0.631516
his,0.400357 0.429581 -1.158080 -0.647316 1.606271 -0.019726 0.074939 0.809032 1.625106 0.305621 -0.651283 1.230947 2.695805 -1.253474 0.376249 1.153176
our,-0.114811 0.432307 -1.140928 -0.814722 1.704493 0.185782 -0.196721 0.347562 2.023605 0.317849 -0.483370 1.385856 3.008771 -0.921153 0.209554 1.544081
who,0.288772 0.495918 -0.583634 -0.507631 1.285662 1.917615 -0.174557 -0.054488 1.960266 -0.188211 0.492989 -0.533666 0.372186 0.348176 -0.587471 1.214770
some,-0.993140 0.085673 -0.406779 -0.185474 0.497038 0.231315 -0.264683 -0.144456 0.388842 -0.062889 -0.112501 1.837388 1.107702 0.133553 -0.093163 0.117308
them,-0.182859 -0.542635 0.052660 -0.183383 1.053443 -0.088584 0.150280 -0.013197 1.717018 0.493737 0.221174 -0.068234 0.989977 -0.243404 0.035865 0.565840
know,0.656009 -0.250041 1.109820 0.287849 -0.271188 0.037240 -0.043354 0.591537 -0.155225 0.254085 -0.766376 -1.295080 -0.024084 -0.022832 1.447913 -0.360592
which,-0.282062 -0.208392 -0.608184 0.038403 0.456951 1.553839 -0.200807 -0.363698 1.608433 -0.182066 0.396933 -0.225335 0.299419 0.127979 -0.206525 0.427875
been,1.802724 0.905349 0.601627 0.140614 -0.666297 -0.207561 0.283551 0.119096 -0.081475 -0.343296 -0.262287 -1.106227 -0.611822 1.276167 0.550765 -0.412062
also,-1.006146 0.925323 0.644051 -0.543755 0.354017 1.225885 0.039375 0.617703 -0.854044 -0.849151 -0.540605 0.959729 -1.415840 0.836088 -0.422441 -0.512063
am,0.801890 0.409206 0.401695 0.263885 -1.021092 -0.506509 0.396276 -0.216888 -0.064048 -0.137898 0.244983 -0.547553 -0.526343 0.764866 -0.382935 0.198056
us,-0.447893 -0.323229 -0.231470 -0.023313 -0.299220 -0.024061 0.394679 -0.288308 0.320181 0.145819 0.164872 0.211906 0.535352 -0.342055 -0.247886 0.081835
very,-0.728340 0.615187 0.456280 -0.758589 0.872307 -0.225847 -0.201315 0.458724 -1.132636 -0.096527 0.578898 2.095457 -0.998597 1.133279 0.127404 -0.487920
any,-1.112424 0.478490 -0.489156 -0.566785 0.955840 0.163173 -0.452764 -0.073049 0.496425 0.110519 0.009300 2.161350 1.058233 0.692227 -0.070821 0.196999
more,-0.884724 0.062177 0.208626 -0.071949 0.072517 0.064350 0.313398 0.186455 -0.819342 -0.254034 0.021522 1.306247 -0.344518 0.323920 -0.096122 -0.514929
no,-1.061561 0.467890 -0.196951 -0.596688 0.138860 0.143278 -0.163632 0.016750 -0.512806 -0.195111 0.087040 2.003713 -0.342695 0.958595 0.005222 -0.293458
good,-0.496694 0.056372 0.005195 -0.106945 -0.058025 0.146641 0.459080 0.520269 -0.944271 -0.113449 -0.505644 1.560148 -0.039317 -0.322299 -0.210196 -0.115105
did,0.872312 1.495399 0.902848 0.757455 -0.625864 -0.553138 0.861866 0.170998 0.514873 1.218546 0.018870 -0.679121 -0.884735 0.329087 -0.135016 0.339519
could,1.887239 1.771648 0.283172 0.954242 -0.724549 0.619872 0.844885 0.569027 0.494702 0.433402 -0.231079 -1.089332 -0.816600 1.383751 -0.366889 0.061836
him,-0.597595 -0.610793 -0.089243 -0.427015 1.224942 -0.020058 -0.207061 -0.508054 1.905183 0.619504 0.508022 0.101049 1.230754 0.090822 0.185905 0.749074
new,-0.426841 0.086374 -0.562272 -0.011701 -0.221831 0.195192 0.546707 0.363176 -1.130563 -0.158454 -0.412768 1.463980 0.383920 -0.199579 -0.210069 -0.165979
go,0.796834 -0.220501 0.996339 0.779051 -0.148264 -0.350039 -0.065152 0.417783 -0.199461 0.194374 -0.582351 -1.010829 -0.005116 -0.104541 0.627235 -0.273539
other,-0.730193 0.229828 -0.233520 -0.099176 -0.245997 0.139041 0.342349 0.385393 -0.943368 -0.152650 -0.232818 1.635088 0.161781 0.142171 -0.332707 -0.377775
she,0.340542 0.295106 -0.332159 -0.438461 1.505108 1.742209 -0.492442 -0.165777 2.589473 -0.149811 0.285635 -0.226647 0.477900 -0.002976 -0.645905 1.306866
only,-0.895062 0.979894 0.504736 -0.239078 0.608187 0.850731 0.122051 0.640504 -1.177201 -0.484539 -0.223919 1.509093 -0.962486 0.632333 -0.099626 -0.644922
please,-0.784955 1.129672 -0.260917 -0.945547 -0.324632 1.724018 0.076964 -0.205225 0.140091 -0.479655 -0.208005 1.204630 -0.893040 0.790578 -0.689599 0.182026
$,-0.186579 1.275276 -0.581224 -0.859317 -0.593485 -0.517365 -0.129358 0.357970 -0.872391 -0.759274 -0.022112 0.622793 0.519632 -0.935902 0.405503 -0.418942
how,-1.045979 0.378513 0.824637 -0.042324 0.491223 1.142210 -0.144088 0.664539 -1.117053 -0.605932 -0.259047 1.142465 -0.900229 0.714737 0.431441 -0.561867
should,1.574577 1.668595 0.127884 0.944752 -0.600398 0.705281 0.822413 0.508741 0.644741 0.434841 -0.051291 -1.162247 -0.758143 1.288777 -0.305287 -0.021165
people,0.067155 -0.334774 0.031832 0.348486 -0.133497 0.838430 0.458522 0.218776 0.254892 0.069298 0.130875 -0.340981 -0.150116 -0.645387 -0.374448 0.311618
may,0.388543 1.506003 -0.225638 0.502397 -0.633728 0.768213 0.385116 -0.220743 0.136408 0.176709 0.548178 -0.773191 -0.789153 0.566897 -0.824058 0.310299
',-0.890996 0.633902 0.195613 -0.330509 -0.272549 -0.106192 -0.814659 0.267362 -1.152477 -0.611606 -0.790441 -0.300753 -0.104677 0.137097 0.053086 -0.713088
then,-0.682062 0.408405 0.445041 -0.338050 0.192248 1.272225 -0.178540 0.766030 -1.018816 -0.395656 -0.110478 0.641097 -1.189490 0.628466 0.373334 -0.178901
back,-0.767179 -0.500786 0.515208 0.531615 0.210038 -0.001631 0.045029 -0.065680 -0.411619 0.209549 0.366294 0.484769 -0.786096 0.435248 -0.196990 -0.408094
now,-1.113205 0.304123 0.813107 -0.471184 0.301368 1.071311 0.071065 0.882259 -0.815396 -0.603146 -0.219415 1.132789 -1.240750 0.751254 -0.096506 -0.471937
said,0.888824 0.115520 0.794807 0.060063 -0.469214 -0.119601 -0.446185 0.925201 -0.077690 -0.047332 -1.091266 -1.446561 -0.088986 0.006534 1.401428 -0.277555
even,-1.138097 1.120022 0.961521 -0.039747 0.833416 0.976922 -0.041640 0.505892 -1.184967 -0.103566 0.117562 1.473152 -1.568788 1.309623 -0.257357 -0.697166
...,-1.132704 1.266619 0.350727 -1.063804 -0.287758 0.160553 -1.363857 1.072892 -0.906112 -0.878913 -1.272810 -1.586887 -0.010386 -0.964727 0.581253 -0.123293
after,-0.645415 -0.051061 0.209096 -0.472150 -0.136167 0.396391 -0.575023 -0.565882 -0.210946 0.141309 1.517554 0.435930 -0.341691 1.263054 0.709977 0.095582
work,0.446766 -0.405053 0.156187 0.850627 -0.357921 -0.367251 0.513926 0.076975 -0.017158 0.095054 0.246212 -0.525441 -0.398858 -0.108695 0.142407 -0.128991
bush,-0.200823 0.583036 -0.213747 0.272690 -0.789677 0.335076 0.036612 -0.190917 -0.280044 -0.411068 -0.405885 -0.895158 -0.223518 -0.307729 -0.884785 -0.255486
well,-1.198954 -0.249210 0.851750 -0.411885 0.185505 -0.071459 0.155086 0.467014 -0.338786 -0.102262 0.221644 1.011399 -0.749210 0.924738 -0.823280 -0.117429
want,1.701954 -0.485585 1.349065 0.645056 -0.265624 -0.056615 -0.356162 0.883236 0.717502 0.106639 -1.195137 -1.314520 0.162600 -0.082773 1.384124 -1.021331
her,0.014287 -0.037389 -0.475047 -0.431301 1.222624 -0.018536 0.174795 0.192875 1.446182 0.408919 -0.221274 0.663974 1.703901 -0.802155 0.250858 0.798662
/,0.095006 1.133752 -0.219726 -0.577970 0.023885 0.247320 -1.391860 1.241906 -1.262300 -0.185455 -0.993481 -0.457852 0.396342 -1.401881 0.694966 0.287933
great,-0.662965 0.366443 -0.154367 -0.275823 -0.178749 0.100980 0.530597 0.461001 -0.801617 -0.165989 -0.542972 1.617272 -0.200054 -0.171589 -0.308232 -0.155695
because,-0.661592 -0.831829 -0.186074 0.280714 0.215115 1.659974 -0.636373 -0.058540 0.258217 0.182838 1.097691 0.217020 -0.490489 1.283936 1.036868 0.254722
way,-0.699635 -0.333841 0.268998 0.382406 -0.465557 0.384199 0.521912 0.272527 -0.389608 -0.189098 0.194161 0.191396 -0.573384 -0.045790 -0.185096 -0.213183
see,1.697713 0.102228 0.756984 0.292385 0.069622 -0.388650 0.716453 0.872956 0.461154 0.485223 -0.471876 -0.372941 0.346180 -0.054343 1.939048 -0.418275
best,-0.489076 0.326209 -0.085304 -0.116147 -0.203708 0.139206 0.263873 0.529921 -0.846523 -0.265177 -0.401425 1.258550 -0.458839 -0.328313 -0.450910 -0.048796
than,-0.874387 -0.191556 0.119716 -0.216451 0.023213 0.262300 -0.398502 -0.352272 -0.453665 0.315752 1.287325 0.711371 -0.216294 1.247813 0.716232 -0.149691
these,-0.864959 -0.063900 -0.442857 -0.516445 0.239569 0.423416 -0.562803 -0.493917 0.838700 -0.001232 0.078137 1.425204 0.975793 0.601437 -0.534995 0.294543
place,0.130553 -0.722159 0.197382 0.522195 -0.453311 0.038023 0.501374 -0.058243 0.046153 -0.085787 0.302739 -0.458862 -0.468935 -0.539109 -0.251767 -0.186977
'm,1.393369 0.818524 0.940575 0.234291 -0.812390 -0.659370 0.276469 -0.095261 -0.193880 -0.275286 -0.143711 -0.816327 -0.854572 0.944013 0.261096 0.150203
into,-0.342133 -0.081089 0.502580 -0.415163 -0.219362 -0.455443 -0.375654 -0.887523 -0.434916 0.266342 1.912116 0.076710 0.110287 0.960254 1.122514 0.032785
take,1.449863 0.178542 0.256202 0.333676 -0.030957 -0.616959 0.860969 0.304602 0.088556 0.360571 0.217941 -0.063110 0.162981 0.061501 1.866917 -0.325816
going,1.475155 -0.577836 1.326694 1.075945 -0.248244 0.030053 -0.352090 0.555314 0.540787 0.193573 -1.168968 -1.219247 -0.061934 -0.026290 0.883674 -0.822462
service,-0.139226 -0.379626 -0.065468 0.068790 -0.554862 -0.377010 0.587566 0.139044 0.324724 -0.175791 0.048815 -0.246901 -0.385404 -0.698430 -0.654503 -0.167634
over,-0.900414 -0.090989 0.484279 -0.325982 -0.035258 -0.466132 -0.311909 -0.363387 -0.653887 0.042940 1.370979 0.996554 -0.105984 1.076049 0.680629 -0.360903
need,1.379322 -0.767553 1.070817 0.613112 -0.387180 0.013592 0.301553 0.210588 0.238845 0.152107 -0.022100 -0.532307 -0.294320 -0.049171 0.854891 -0.581781
thanks,-0.538125 -0.125305 0.649027 -0.298620 -0.811405 -0.866731 0.325200 0.036435 0.168630 -0.657326 -0.252683 0.667110 -0.991041 -0.459864 -0.662502 0.526685
make,1.551784 0.099131 0.841628 0.105076 -0.206196 -0.791629 0.430616 0.520127 0.038661 0.163830 -0.109222 -0.668078 0.295995 0.404194 2.045474 -0.543881
many,-0.424415 0.011706 -0.055064 0.234574 -0.127191 0.129183 0.312074 0.294023 -0.889638 -0.148971 -0.240085 1.472140 0.246794 -0.312741 -0.054137 -0.246748
year,-0.508785 -0.399305 0.322724 -0.010691 -0.605205 -0.506242 0.455907 0.142127 -0.383688 -0.092114 0.401628 0.047282 -0.437036 -0.141364 -0.541970 -0.134198
before,-0.847851 -0.311299 0.137000 -0.312802 0.046875 0.964819 -0.316301 0.053297 -0.403959 0.289128 1.138136 0.430248 -0.685797 1.454132 0.639410 -0.052257
here,-1.192848 0.508588 0.759476 0.205199 0.148201 0.248288 -0.011598 0.520314 -0.457484 -0.655058 -0.427109 0.692452 -1.063706 0.352270 -0.499611 -0.472313
number,-0.209317 -0.725884 0.009014 1.547492 -0.250104 -0.455130 0.273996 -0.297984 0.343208 -0.901761 0.103025 -0.077924 -0.278630 -1.010162 -0.511421 -0.477189
day,-0.566804 -0.736285 0.174823 0.153087 -0.586562 -0.040266 0.436537 0.098885 -0.266447 -0.120216 0.334269 -0.106762 -0.378114 0.050843 -0.536588 -0.109724
two,-0.004388 0.033885 -0.489692 0.026312 -0.258991 -0.274022 0.658910 0.222244 -0.314736 0.185099 -0.577632 1.054151 0.952317 -1.166359 -0.105438 0.116368
think,0.604609 -0.451263 0.339945 0.348624 -0.643455 0.914497 0.191336 0.662210 -0.148794 0.017297 -0.428379 -0.613207 -0.344257 -0.075342 1.777859 0.001259
food,0.146910 -0.341777 -0.082944 0.169987 -0.108684 -0.027372 0.439208 0.354406 0.257519 -0.122347 0.187093 -0.313411 -0.381526 -0.774914 -0.550802 0.215468
much,-0.653940 0.218027 0.196220 0.335340 0.082552 0.096553 0.433349 0.156786 -0.730543 0.090394 0.038065 1.088454 -0.336973 0.033472 0.081786 -0.379061
let,1.558390 -0.083021 0.505484 0.534177 -0.454963 0.113681 0.165345 1.013316 0.463122 0.689345 -1.277001 -0.752276 0.135464 0.048317 2.669994 -0.099755
first,-0.478144 0.353132 -0.112513 -0.085620 -0.049304 0.259855 0.230100 0.569699 -1.034247 -0.179774 -0.069807 1.231634 -0.539887 0.281031 -0.271569 -0.248854
s,0.398270 0.563253 0.397888 0.432252 -0.666200 -0.561717 -0.551379 0.119895 -0.764221 0.012730 0.131255 -1.036250 -0.300465 0.913256 0.072622 -0.134338
its,0.109006 0.475704 -1.256150 -0.811998 1.656235 0.106442 -0.049148 0.567776 1.876606 0.268630 -0.564411 1.360269 2.865538 -1.107008 0.338843 1.254847
call,0.513617 -0.612992 0.156846 0.528884 -0.421839 0.029067 0.607750 0.174651 0.028939 0.224483 0.229514 -0.363519 -0.398032 -0.311868 0.675019 -0.085075
2,-0.360736 0.227924 -0.139720 -0.146177 -0.499388 -0.500603 0.484487 0.457570 -0.481401 0.095801 -0.344077 0.898176 0.357509 -1.041076 -0.391929 0.344059
does,0.753866 1.987782 1.025239 0.771999 -0.763091 -0.714456 0.401205 0.024483 0.520297 1.464816 0.486170 -0.658059 -0.813199 0.733217 -0.489072 0.678028
--,-1.423398 1.109018 0.735429 -0.587905 0.074713 0.645913 -0.846010 0.834599 -1.110021 -0.954425 -1.071317 0.116848 -0.372885 -0.093734 0.643926 -0.506888
help,0.971243 -0.262946 0.101039 0.221725 0.060205 -0.096426 0.741379 0.650638 0.474626 0.402223 0.108991 -0.397697 -0.102615 -0.032148 0.826969 0.070639
years,-0.625142 -0.432557 0.249685 0.058062 -0.524995 -0.002340 0.451394 0.391559 -0.502326 -0.279249 0.252487 0.088758 -0.240436 -0.209238 -0.212000 -0.118393
being,1.378945 0.684608 0.389566 0.276216 -0.902927 -0.216504 0.471641 0.086584 -0.331893 -0.300717 0.731021 -0.863526 -0.188212 1.262189 0.229956 -0.077119
never,-0.978437 1.076089 0.630069 -0.677309 0.827480 2.036873 0.164179 0.733162 -1.102096 -0.884217 -0.663937 1.002573 -1.626157 1.279422 -1.026303 -0.767447
really,-0.882304 0.990298 0.329616 -0.394692 0.754793 1.017553 0.318540 0.622186 -0.923572 -0.518399 0.078183 1.652742 -1.350607 1.209183 -0.462212 -0.506995
'll,0.959096 1.914949 -0.102907 0.272318 -0.404175 1.086989 0.952766 0.047694 0.322068 0.073983 0.136669 -1.093518 -1.078990 0.872017 -0.743680 0.052425
pm,-0.980743 0.020464 -0.213578 -0.512054 -0.785828 -1.112928 0.606372 0.139456 0.129656 -0.487528 -0.290631 0.095648 -0.277552 -0.504258 -1.122384 -0.266073
most,-0.987076 0.236280 0.084548 0.208233 0.153606 0.029646 -0.025612 0.002633 -0.713462 -0.570419 0.325428 1.428629 -0.365844 0.813886 -0.424652 -0.647502
use,0.746257 0.017788 0.365991 0.159698 -0.233206 -0.396460 0.487398 0.466061 -0.314343 0.023043 0.310682 -0.295904 0.065421 -0.220500 1.410596 -0.219328
made,1.849394 -0.112096 0.410520 0.410152 0.146623 -0.710806 0.860945 0.576272 0.600094 0.308740 -0.140021 -0.219249 -0.064030 0.053351 1.703812 -0.426960
still,-0.807116 0.849231 0.328914 -0.115655 0.594216 1.374100 0.451599 0.494760 -0.921289 -0.565984 -0.108386 1.068518 -1.483424 1.105713 -0.684593 -0.513626
same,-0.486371 0.201680 -0.271710 0.196955 -0.323500 0.070069 0.587734 0.344446 -1.009159 0.248227 -0.385829 1.593979 0.439766 -0.580962 -0.145538 -0.101566
world,-0.089148 -0.281987 0.041361 0.368827 -0.641636 -0.178983 0.176744 0.289665 -0.445185 -0.050587 0.127748 -0.316818 -0.335533 -0.680040 -0.766451 0.212681
right,-0.508093 -0.076334 0.450206 0.442868 0.039222 -0.286481 0.260275 0.102646 -0.696279 0.250437 -0.014367 0.511213 -0.632374 -0.172645 -0.238177 -0.005019
got,1.712812 0.309381 1.146123 0.310077 -0.354611 -0.680776 0.157138 0.540632 0.144297 -0.009630 -0.304508 -0.869402 0.066823 0.351279 2.065745 -0.538668
say,1.569051 -0.408603 0.456434 0.348759 0.017687 -0.130098 0.952031 0.638214 0.648335 0.434906 -0.208262 -0.611952 -0.255184 0.366791 1.192286 -0.325685
another,-1.029514 0.030349 -0.492319 -0.560878 0.087829 0.043154 -0.482362 -0.287656 0.244450 0.072874 0.229006 1.714175 0.786725 0.671226 -0.232366 -0.001279
give,1.209072 -0.094114 0.467785 0.390435 -0.846266 0.388274 0.080474 1.050834 -0.132485 0.282402 -0.875788 -1.181333 0.127743 0.893565 3.058531 -0.184411
off,-1.100393 -0.456119 0.431448 0.016739 -0.123256 -0.349452 -0.127443 -0.572203 -0.190346 0.018365 0.840491 0.690306 -0.142736 0.578558 0.165386 -0.298331
last,-0.721847 0.580533 -0.270884 0.055666 -0.093874 0.004037 0.367768 0.272630 -1.138170 0.216270 -0.144907 1.954766 0.025841 0.220712 0.088939 -0.426335
3,-0.348553 0.106064 -0.298146 -0.032242 -0.407063 -0.388476 0.572102 0.476415 -0.483053 0.036939 -0.609620 1.009232 0.577043 -1.125022 -0.375358 0.428313
since,-0.826251 -0.646517 -0.361914 -0.484724 -0.044008 1.260250 -0.655008 -0.687525 0.706062 0.386368 1.082802 0.238473 0.025627 1.118092 0.943884 0.596845
've,1.644709 1.131597 0.672564 0.335622 -0.281632 0.667299 0.904450 0.110648 0.159587 -0.225016 -0.361600 -0.976536 -0.914242 0.762441 -0.567317 0.077066
those,-0.822939 -0.265491 -0.110306 -0.280561 0.168773 0.854155 -0.345602 -0.172127 0.859597 0.111986 0.097062 1.319297 1.275248 0.113946 -0.109721 0.371654
too,-1.397376 0.542934 1.034820 -0.921545 1.037578 -0.040291 0.220563 0.907532 -1.079158 -0.343003 0.214544 1.975288 -1.367429 1.331257 -0.534154 -0.655886
find,1.288898 0.386420 0.809047 0.091863 0.160646 -0.577264 0.430671 0.572042 -0.181589 0.247417 -0.364084 -0.313023 0.544780 -0.289329 2.276431 -0.369903
around,-0.688216 -0.273808 0.470096 -0.063966 -0.155866 -0.432472 -0.326314 -0.291102 -0.613972 0.052079 1.331518 0.573462 -0.338190 1.099446 0.496650 -0.295066
put,1.159723 -0.051126 0.505835 0.528756 -0.381932 -0.369780 0.730402 0.234579 -0.187140 0.289538 0.447817 -0.229797 -0.028042 0.363627 2.296802 -0.110695
where,-0.642790 -0.201380 0.201077 0.079563 -0.007002 1.314750 0.167444 0.483020 -0.732901 -0.037315 0.473111 0.658122 -1.049547 0.689262 1.005848 -0.264657
again,-1.611003 -0.191495 0.850146 -0.556792 0.456075 -0.127787 0.177480 0.768925 -0.453751 -0.413376 0.076780 1.348088 -1.171721 1.068758 -0.801280 -0.408487
sure,-0.662446 -0.797741 0.634509 0.152534 -0.200005 0.954581 0.466953 0.450924 -0.554143 0.244932 -0.207073 0.673003 -0.366115 -0.275521 1.037049 -0.152227
iraq,-0.731615 -0.454362 0.089379 -0.064281 -1.024355 -0.287419 0.413539 0.153339 0.202147 -0.210426 0.438687 -0.104195 0.375908 -0.078963 -0.994860 0.157986
1,-0.451856 0.399403 -0.157957 -0.391443 -0.578933 -0.485095 0.207148 0.612217 -0.242741 -0.213615 -0.597326 0.245435 0.140658 -1.094885 -0.399947 0.408078
down,-1.265211 -0.612760 0.781024 -0.164804 -0.057044 -0.170534 -0.144741 -0.271848 -0.236811 0.111492 0.691194 0.919639 -0.348915 0.720801 -0.019540 -0.416161
little,0.324929 0.448418 -0.533066 -0.005306 -0.085822 -0.036047 0.261017 0.391043 -0.665897 0.223829 -0.337624 0.136511 0.310877 -1.211979 0.303870 0.073831
long,-0.837512 0.115696 0.334014 0.151097 -0.032927 0.275554 0.400500 0.299127 -0.860841 -0.045740 0.027712 1.242373 -0.423135 0.462164 -0.250270 -0.403063
better,-1.021380 0.017622 0.476130 0.160155 0.071193 0.062153 0.508895 0.302705 -0.660957 -0.033466 -0.322141 1.395619 -0.493495 0.128300 -0.218368 -0.486847
al,-0.099047 0.115431 -0.199380 0.267489 -0.790887 -0.978644 -0.193857 -0.266574 -0.424607 -0.196925 -0.679108 -0.731502 -0.271403 -0.139399 -1.431484 0.261496
price,-0.552555 -0.325823 0.042970 0.528652 -0.389619 -0.081797 0.396921 0.023557 -0.269116 -0.472902 0.137901 0.264305 -0.513917 -0.160697 -0.958049 -0.347625
&,0.403187 1.125640 -0.322923 -0.396127 0.548529 0.334369 -1.008432 1.260787 -0.694326 0.078078 -1.169519 0.112834 0.861587 -1.601597 0.832426 0.669154
told,0.986836 -0.437498 0.514844 0.289171 -0.803815 0.478200 0.195673 0.496791 -0.107689 0.323705 -0.385456 -0.842790 -0.281233 0.452969 2.073852 -0.171595
both,-0.713042 0.754658 0.360919 -0.359305 0.662210 0.524240 -0.340239 0.991347 -0.951930 -0.431604 -0.472056 1.460581 0.422652 -0.496257 0.464201 0.328884
through,-0.597568 -0.164249 0.278719 -0.159206 -0.348965 -0.408244 -0.344992 -0.437149 -0.607112 0.042886 1.635686 0.450694 -0.157869 1.213461 1.049084 -0.142728
next,-0.866355 0.353075 -0.191207 0.167011 -0.166375 0.100588 0.139159 0.080660 -0.821744 0.203788 0.035057 1.802785 -0.082970 0.497659 -0.274848 -0.601700
called,1.747080 0.430177 0.484785 0.175162 0.028367 -0.820544 0.663074 0.608372 0.523202 0.241456 -0.353183 -0.231634 0.110208 -0.183061 1.552256 -0.440661
few,0.920988 0.193214 -0.609764 0.219973 0.099656 -0.351298 0.657900 0.284533 -0.403273 0.575700 -0.348583 0.762458 0.648022 -1.416366 0.104919 -0.006380
while,-0.422358 -0.389312 -0.472596 -0.243548 0.045930 1.209472 -0.459332 -0.354705 0.702371 0.330029 1.032379 -0.227785 -0.140072 0.874924 0.596863 0.815906
days,-0.521726 -0.508892 0.468485 0.289847 -0.453069 -0.395876 0.465058 0.012153 -0.453790 -0.062601 0.354950 -0.066990 -0.330542 -0.224686 -0.404608 -0.071687
look,0.905868 -0.308148 0.293089 1.248955 0.361918 -0.318465 0.537845 0.319440 0.187447 0.108820 -0.142583 -0.229962 -0.041120 -0.443856 0.926121 0.116913
enron,-0.432052 -0.252885 -0.445354 0.059202 -0.726889 -0.056555 0.175237 -0.449945 0.119693 0.049839 0.039696 0.284276 0.266875 -0.238358 -0.577398 0.069084
come,1.483497 -0.496326 0.845113 1.038518 0.118290 -0.523638 0.468741 0.365204 0.324459 0.364892 -0.602410 -0.771881 0.010936 0.190775 0.744637 -0.398259
home,-0.862392 -0.312725 0.281076 0.147291 -0.177160 -0.220096 0.352651 0.319006 -0.557782 -0.213399 0.114018 0.619914 -0.576776 0.426087 -0.764913 -0.350496
4,-0.143498 0.039672 -0.348691 -0.121654 -0.366788 -0.540686 0.562329 0.275239 -0.076114 0.122782 -0.593630 0.809790 0.547348 -1.113006 -0.370426 0.379106
feel,0.998320 0.119724 0.473471 0.045236 -0.341987 -0.170788 0.036214 0.478873 -0.429948 -0.043184 -0.245811 -0.743996 0.003573 0.053325 1.576770 -0.314142
used,1.482512 -0.633484 0.890523 0.857263 0.147379 -0.352607 0.317266 0.526972 0.660324 0.173791 -0.545270 -0.558890 -0.108516 -0.404716 1.237017 -0.513186
always,-0.578048 1.009774 0.282842 -0.346985 0.441005 1.138417 0.504501 0.457006 -0.841944 -0.545908 -0.015310 1.031237 -1.443604 0.902056 -0.648269 -0.446970
;,-1.450377 0.892758 0.627612 -0.769828 0.101961 0.577850 -1.237440 0.949944 -1.359471 -0.867117 -0.992496 -0.544697 -0.259137 0.097236 1.078727 -0.637423
're,1.423075 0.904777 0.477242 0.430268 -0.746561 -0.033179 0.652889 0.131939 -0.332344 -0.055790 0.417711 -1.033347 -0.376341 1.399262 -0.155708 -0.120062
business,-0.202468 -0.517710 -0.035034 0.278655 -0.552059 -0.138822 0.384131 0.073417 -0.389756 -0.031344 0.112443 0.049519 -0.221165 -0.447628 -0.591133 0.029069
car,0.069119 -0.432345 -0.133696 0.413212 -0.450521 -0.015012 0.506998 0.005458 -0.414198 0.025067 0.395927 -0.439715 -0.464063 -0.660952 -0.445816 -0.018550
5,-0.319679 0.333508 -0.425622 0.032452 -0.318226 -0.541788 0.548251 0.413798 -0.183586 0.098433 -0.491052 0.904327 0.776131 -1.083785 -0.379051 0.547344
such,-0.971228 -0.270086 1.086197 -0.081843 0.104924 -0.096434 0.305206 -0.496947 -0.772293 0.226492 0.319389 1.404570 0.399742 0.099301 0.557350 -0.379911
name,-0.775819 -0.562166 0.445786 0.562350 -0.267043 -0.070216 0.550567 -0.058740 -0.271796 -0.302134 0.236181 0.229204 -0.429470 -0.283729 -0.424431 -0.361359
change,0.140824 -0.392232 0.206263 0.312631 -0.389136 -0.307595 0.489263 0.199474 -0.381329 0.097890 0.471597 -0.191690 -0.281161 -0.579185 0.679486 0.057331
family,0.050649 -0.385820 -0.145845 -0.025615 -0.693370 0.032984 0.420481 0.138499 -0.205311 -0.024399 0.305599 -0.319996 -0.456548 -0.580134 -0.753032 -0.019893
own,0.685634 0.182986 -0.669615 -0.093265 -0.037552 -0.325173 0.319047 0.396013 -0.451532 0.238069 0.002667 -0.151362 0.149929 -1.051845 0.139862 -0.108806
every,-0.905004 0.473819 -0.561715 -0.043042 0.096677 0.037747 -0.225598 -0.277209 -0.122352 0.436095 0.006029 1.753147 0.691485 0.413668 -0.059013 -0.019497
lot,-0.274444 -0.505875 -0.008899 1.127829 0.231905 -0.290697 0.520326 -0.065193 0.372083 -0.189795 0.088084 0.108141 0.252653 -1.232268 -0.301223 -0.004398
money,-0.199240 -0.682352 0.170998 0.081601 -0.158337 0.306235 0.465282 0.331243 0.134417 0.063876 0.161392 -0.121637 -0.095074 -0.697184 -0.279655 0.270060
took,1.687810 0.574849 0.839662 0.169408 -0.078112 -0.881530 -0.032466 0.791071 0.003402 -0.086049 -0.722211 -0.848477 0.555824 0.150272 2.851993 -0.601031
ca,-0.191542 3.250323 0.605217 1.324711 -0.919448 -0.878044 0.799613 -0.522343 0.627153 2.171897 0.095928 -0.512867 -1.027661 -0.227080 -1.729908 0.379708
however,-0.897885 0.098525 0.931832 -0.943465 0.434496 -0.636397 -0.066462 1.137844 -0.573595 -0.685750 0.084380 1.176295 -1.817400 0.722598 -1.005772 0.180774
week,-0.515335 -0.668992 0.348950 -0.148076 0.103674 -0.309540 0.588963 0.624392 0.151418 0.179599 0.006776 0.409019 0.313977 -1.008360 -0.268691 0.571509
between,-0.406510 -0.281729 0.131669 0.014644 -0.678738 -0.396360 -0.508042 -0.514595 -0.504412 0.080070 1.483505 0.137839 0.035105 1.391449 0.375417 -0.099078
experience,-0.707477 -0.303649 0.277368 0.460112 -0.320429 -0.023110 0.519858 0.236609 -0.343406 -0.164414 0.157198 0.231371 -0.562132 -0.283233 -0.287139 -0.163876
done,0.734252 -0.218047 0.722223 0.351776 0.168041 -0.624506 0.410340 0.465650 0.151974 0.388292 -0.407345 -0.469718 -0.240255 -0.548860 0.799235 -0.167385
keep,1.463933 0.125149 0.521029 0.247725 -0.303201 -0.238323 0.470671 0.739221 0.060438 0.171267 -0.074644 -0.577346 0.309887 0.328200 2.304039 -0.533213
states,-0.433956 -0.630114 -0.011200 0.314981 -0.644919 -0.243067 0.471231 -0.128149 -0.012663 -0.229167 0.419804 -0.343859 -0.152596 -0.153659 -0.562401 0.073657
love,0.802501 -0.089960 -0.090477 0.150107 -0.574428 0.029403 0.395378 0.449642 -0.063956 0.085267 0.130235 -0.011659 -0.238227 -0.325012 1.368383 -0.076340
ever,-0.707095 0.096812 0.423869 -0.598750 0.149211 1.389807 0.460410 0.531878 -0.487823 -0.421722 0.071378 0.368561 -1.100174 0.903440 -1.063368 -0.283289
something,-0.401891 -0.500704 0.133136 0.039881 0.819926 0.379345 0.045531 -0.137863 0.936710 0.403497 0.109872 0.487746 0.909403 -0.422171 0.462505 0.626240
try,1.710026 -0.578293 0.638544 0.447065 -0.062574 -0.050298 0.545988 0.630343 0.680935 0.351521 -0.314056 -0.495608 -0.202125 -0.077813 1.093886 -0.573407
company,-0.545075 -0.353606 0.209326 0.326993 -0.443018 0.257375 0.419219 0.218308 -0.277004 -0.329829 0.094128 -0.122612 -0.598572 -0.301424 -0.737433 -0.197807
united,-0.656633 0.102740 -1.138383 1.404885 0.123386 0.367946 0.453031 0.402188 -1.577468 -0.209579 -0.346493 1.557941 -0.227788 0.757930 0.421724 0.429886
already,-0.687150 1.185478 0.035755 -0.108954 0.340259 1.210279 0.580671 0.336463 -0.719026 -0.511316 -0.034510 0.847157 -1.420545 0.946241 -0.671957 -0.408531
anyone,-0.097819 -0.063124 -0.372608 -0.589222 0.265327 1.265833 0.200120 0.231923 1.441584 0.132744 0.422997 -0.171960 0.621068 0.085024 -0.192604 0.475536
office,-0.808746 -0.679157 0.433467 -0.070486 -0.655517 0.003130 0.576304 0.260347 -0.138903 -0.115508 0.078189 0.364445 -0.061011 -0.265307 -0.566656 -0.090783
night,-0.771906 -0.521513 0.412733 -0.027682 -0.642348 -0.214779 0.511333 0.435674 -0.240194 -0.125022 0.451415 0.139827 -0.212181 0.031763 -0.652460 -0.199181
10,-0.095770 0.360356 -0.471491 0.059419 -0.369739 -0.321194 0.298181 0.514255 -0.134593 0.185353 -0.158519 0.777763 0.771815 -1.155435 -0.292452 0.287121
things,-0.142961 -0.562966 0.033698 0.741124 -0.344956 0.270749 0.690550 -0.136820 -0.096859 0.087449 0.088228 -0.385772 -0.284962 -0.438713 -0.042655 -0.012781
doing,1.484463 -0.179301 0.405614 0.251961 -0.098584 -0.609518 0.621206 0.564347 0.214387 0.311207 -0.035697 -0.357213 -0.031971 0.171234 1.361697 -0.354035
m,-0.050725 -0.353723 -0.130802 0.023550 -0.727790 -0.927025 0.413969 -0.382287 -0.148770 -0.294209 -0.105052 -0.162594 -0.495809 -0.298863 -0.878746 0.189607
looking,1.094652 -0.546259 0.684379 1.985932 0.141392 -0.463756 0.139045 0.083148 0.072901 -0.246038 -0.470758 -0.737454 -0.304618 0.082684 0.987828 -0.229847
job,-0.120353 -0.656650 0.031001 0.145790 0.030069 -0.183460 0.535171 0.124809 0.262479 0.235296 0.131888 -0.185321 0.009691 -0.717134 -0.241393 0.261372
thing,0.324950 -0.835903 0.378160 0.231995 0.218235 0.398617 0.537481 0.360902 0.511382 0.279877 -0.130743 -0.140384 -0.066726 -1.080967 0.124874 0.505205
staff,0.024656 -0.198131 0.096226 0.349156 -0.540265 0.363454 0.546355 0.188684 0.098233 -0.236445 0.178495 -0.269557 -0.483570 -0.801615 -0.685961 -0.018939
under,-0.396446 0.171964 0.327501 -0.332810 -0.244012 -0.651846 -0.360269 -0.990332 -0.391729 0.285365 1.727336 0.304773 0.062838 0.752374 1.033727 0.158546
end,0.130133 -0.558168 -0.072104 1.187194 -0.350717 -0.471601 0.387891 -0.162504 -0.231012 -0.241584 0.205546 -0.280884 -0.107591 -0.483236 -0.397638 0.042019
recommend,1.012867 0.170405 0.408115 0.029575 -0.482764 0.399924 0.060174 0.770350 -0.192633 -0.008135 -0.888526 -0.740600 -0.118190 0.011556 1.957413 -0.120995
iran,-0.591440 0.108107 -0.120949 0.004709 -0.563477 -0.061848 0.200044 -0.134925 0.821044 -0.035115 0.277408 0.010779 0.180863 -0.265798 -0.963097 0.306692
went,1.032330 -0.225939 0.980498 1.216595 -0.219883 -0.299505 -0.111847 0.195056 -0.022723 0.203839 -0.576775 -0.922826 -0.195131 -0.079243 0.766159 -0.199700
each,-1.020971 0.407024 -0.357692 -0.001082 0.025753 -0.151104 -0.321528 -0.671361 0.461527 0.129713 0.559719 1.224843 0.935788 0.541600 -0.198826 0.181262
came,1.444281 -0.069288 0.791410 1.616792 -0.002293 -0.555898 0.277477 0.125929 0.230546 0.243218 -0.692427 -0.858090 -0.065695 0.180443 1.057266 -0.208030
room,0.031778 -0.417536 0.046021 0.364618 -0.141230 -0.011005 0.383322 0.455553 -0.098883 0.006203 0.170979 -0.158924 -0.156208 -1.059531 -0.176626 0.403137
might,1.916691 2.001862 0.193102 0.882772 -0.394678 0.691829 1.018307 0.380829 0.550292 0.193521 -0.229279 -1.128157 -0.799957 1.180972 -0.481207 -0.084509
life,-0.651581 -0.556197 0.295944 0.201380 -0.514638 -0.106288 0.556969 0.333590 -0.252973 -0.262714 0.150706 0.014307 -0.219238 -0.497724 -0.580080 -0.036668
attached,0.868593 0.313724 0.169725 0.546435 -0.084885 -0.093304 -0.228892 0.108632 -0.056733 -0.375269 -0.846793 -0.803354 -0.207142 -0.629259 0.139041 -0.117089
old,-0.612167 0.151580 -0.136787 -0.461729 -0.234221 0.059757 0.558893 0.476672 -0.774058 -0.089584 -0.350868 1.400102 -0.011246 -0.310769 -0.386027 -0.396387
china,-0.340024 0.706247 -0.083103 0.397946 -0.953426 0.340797 0.058991 0.022929 0.026727 -0.255063 -0.318482 -0.522012 -0.282272 -0.617080 -0.942722 -0.132288
group,-0.330031 -0.633504 0.074959 0.386730 -0.714640 -0.249448 0.491243 -0.078895 -0.138752 -0.206313 0.284326 -0.373434 -0.298995 -0.504432 -0.716741 -0.070048
away,-1.811896 -0.293474 0.627395 0.504648 0.268900 -0.126803 0.073790 -0.122545 -0.186744 -0.076277 0.303751 1.187006 -0.537282 0.947943 -0.126079 -0.391492
anything,-0.593990 -0.233927 -0.462362 -0.375990 0.560574 0.262259 0.147380 0.149922 0.995957 0.072310 0.412524 0.542634 0.801424 -0.258715 0.912996 0.529334
nice,-0.515222 -0.216745 0.144095 -0.456886 -0.398362 0.118743 0.534636 0.695315 -0.494636 -0.097705 -0.263030 1.180137 -0.242890 -0.422625 -0.300988 -0.189040
order,0.405810 -0.593278 0.259600 0.394783 -0.276766 -0.295515 0.605866 0.129815 0.096341 0.070548 0.395113 -0.497615 -0.131012 -0.249903 0.085638 -0.250158
against,-0.711992 -0.194424 0.217828 -0.075487 -0.553895 -0.400774 -0.446997 -0.658808 -0.465607 0.116960 1.599300 0.268869 0.113596 1.355356 0.660762 -0.010698
found,1.304676 0.103283 0.861363 0.296841 -0.046174 -0.544884 0.251897 0.381116 -0.134718 0.195887 -0.364238 -0.415980 0.101954 -0.141627 2.012060 -0.163226
getting,1.995591 0.162413 0.883346 0.341290 -0.071090 -0.695288 0.790266 0.261858 0.314698 0.272748 0.252650 -0.449465 -0.014038 0.538835 1.529855 -0.512242
nt,-0.656029 1.740743 0.261590 -0.448303 0.537925 1.325581 0.006445 0.541381 -1.056259 -0.386838 -0.640295 0.188177 -1.585783 1.212785 -0.726197 -0.502253
problem,-0.050366 -0.413118 0.034651 0.688798 -0.404307 -0.105393 0.398659 0.003347 -0.105556 -0.135778 0.146390 -0.648371 -0.734657 -0.673328 -0.487358 0.008539
power,-0.401787 -0.633689 0.121453 0.380817 -0.320608 -0.130411 0.458128 0.071451 -0.283828 0.022763 -0.001325 0.220931 0.109432 -0.533686 -0.401904 0.041174
questions,-0.493481 -0.990118 0.480994 -0.187611 -0.549867 0.026918 0.618429 0.408364 -0.244161 0.204609 0.118327 -0.058901 -0.344498 -0.730375 -0.321982 -0.117205
once,-0.851740 -0.093541 0.619247 -0.031607 0.209917 1.156794 -0.168090 0.129491 -0.526749 0.148080 0.700957 0.860145 -0.952933 1.102314 0.466695 0.050543
water,-0.351918 -0.490653 0.009287 -0.061255 -0.425123 -0.114655 0.289964 0.185614 -0.337490 0.087761 0.167037 0.281792 -0.166758 -0.308923 -0.495181 -0.004969
point,-0.830628 -0.785709 0.270530 0.461867 -0.580208 -0.018044 0.599502 0.286052 -0.141853 -0.332652 -0.000348 0.326047 -0.150874 -0.393248 -0.395914 -0.093717
hope,0.246125 -0.869444 0.863219 0.438264 -0.812546 1.066601 0.013641 0.225341 -0.228933 0.168204 -0.076715 -0.252024 -0.806681 -0.111891 1.259839 0.056176
thank,0.987297 -0.961654 0.099258 0.853352 -1.024138 1.362987 0.160248 0.898699 0.492810 0.386641 -1.175250 -0.761127 -0.453612 0.279893 2.392346 0.330640
though,-0.998256 -0.020713 0.488085 -0.462943 -0.140526 0.911481 -0.288609 0.957842 -0.736348 -0.414203 -0.239588 0.052920 -1.026725 0.560572 0.431729 -0.313756
military,0.456932 -0.524429 -0.512466 0.149600 -0.355654 -0.134745 0.497713 0.197830 -0.068298 0.127441 -0.261912 0.100985 0.126324 -0.814412 -0.298173 -0.094956
american,0.648899 -0.139777 -0.643112 -0.081059 -0.314425 -0.230739 0.314297 0.412277 -0.338058 0.055434 -0.411678 0.438073 0.405435 -1.063105 0.042969 0.163072
during,-0.831576 -0.095161 0.660646 -0.441721 -0.322581 -0.521217 -0.397988 -0.784848 -0.593021 0.142402 2.005389 0.623391 0.171625 1.153448 1.460285 -0.028688
state,0.243478 -0.616236 -0.114016 0.625293 -0.628556 -0.148826 0.245139 -0.122059 -0.298465 -0.194364 0.206894 -0.368211 -0.270794 -0.395564 -0.478711 -0.053662
meeting,0.209445 -0.534648 0.078055 1.093973 -0.352505 -0.012712 0.516177 -0.061981 -0.021252 -0.054405 0.300222 -0.477787 -0.404522 -0.423848 0.060233 -0.076207
able,-0.715812 -1.766313 1.475650 0.905323 -0.265618 1.022262 -0.187850 -0.045958 0.370355 0.117780 -0.311077 0.809163 -0.770890 -0.451736 -0.127644 -1.016138
phone,-0.694217 0.081447 -0.249121 0.024247 -0.615654 -0.298045 0.586262 0.358982 -0.340190 0.009200 -0.142020 0.344296 -0.218221 -0.495177 -0.585963 -0.059383
amount,-0.464720 -0.383218 0.109193 0.772916 -0.324563 -0.092987 0.484529 -0.310335 -0.363494 -0.593906 0.061973 0.405242 -0.172396 -0.563339 -0.117480 -0.270312
bad,0.631392 -0.106238 -0.622012 0.228512 -0.217910 -0.435975 0.520348 0.290188 0.083927 0.379744 -0.319041 0.255821 0.051944 -0.889225 0.062917 -0.027845
times,-0.713590 -0.417531 0.425155 0.101044 -0.581425 -0.312891 0.426428 -0.066884 -0.237930 -0.023037 0.423060 0.149621 -0.309915 0.021735 -0.364165 -0.163623
president,-0.355822 0.400283 -0.213337 0.614703 -0.540939 0.029743 0.290136 -0.067328 -0.450843 -0.253374 -0.290760 -0.007434 0.010269 -0.628959 -0.651134 -0.131572
nothing,-0.252559 -0.365658 -0.144130 -0.192641 0.556928 0.214419 0.242132 -0.021492 1.200469 0.012973 0.066490 0.361774 0.703829 -0.662324 0.306716 0.300887
!!,-0.947301 1.466190 0.227112 -1.300433 -0.552669 -1.096060 -1.117668 0.976303 -0.302366 -0.914729 -0.900993 -2.111806 -0.411225 -0.825254 -0.380970 -0.226319
far,-0.992451 0.391426 1.247383 0.418250 0.345282 -0.280883 0.358605 0.053732 -1.134073 0.238313 0.062574 1.058951 -0.331865 0.340599 0.363239 -0.218264
email,-0.389475 -0.341262 -0.013167 -0.209089 -0.559256 -0.380050 0.487384 0.305273 -0.132889 -0.081001 0.062546 0.379277 -0.134083 -0.668270 -0.483661 0.074621
having,1.651565 0.189544 0.508279 0.262217 -0.113898 -0.602385 0.651154 0.192468 0.104874 0.196368 0.266278 -0.215449 -0.041817 0.090637 1.306770 -0.423798
today,-0.947727 -0.170844 0.365624 -0.366448 0.148293 -0.336603 0.325023 0.815524 0.413182 -0.116394 -0.090616 0.460867 -0.055741 -0.476805 -0.701789 0.456735
care,0.108610 -0.842405 0.003494 0.763113 -0.069920 -0.498807 0.308502 -0.055425 0.165278 -0.179432 0.127879 -0.284806 -0.334420 -0.682054 -0.207915 -0.496667
deal,0.157638 -0.224752 -0.399164 1.375947 -0.123403 -0.142763 0.515869 0.043766 -0.173476 0.013786 0.275603 -0.248557 -0.414197 -0.531065 0.334786 0.044872
..,-0.675593 1.079720 0.266594 -0.887777 -0.409090 -0.217147 -1.153968 0.934485 -0.618149 -0.734749 -0.877527 -1.722941 -0.144667 -0.859116 0.516411 -0.223283
agreement,-0.800957 -0.548376 0.184625 0.321010 -0.568516 -0.438665 0.666902 0.019085 -0.181912 -0.195708 0.056532 0.047632 -0.198063 -0.263638 -0.448140 -0.092710
person,-0.463178 -0.632840 0.131446 0.341813 -0.657934 0.538134 0.531363 0.143922 -0.165863 -0.175981 0.030650 0.013601 -0.397214 -0.339820 -0.598055 -0.295090
left,0.791561 -0.031025 0.457321 0.287506 -0.018167 -0.588763 0.329962 0.329049 -0.210756 0.166138 0.078157 -0.286628 -0.022508 -0.526837 1.095286 -0.171153
asked,1.273411 -0.342310 1.083777 1.002869 -0.140996 0.030652 -0.048687 0.563157 0.294518 0.215302 -0.877431 -0.879335 -0.059381 -0.212607 1.546777 -0.308124
yes,-0.974090 -0.582748 0.341644 -0.714026 -0.627579 -0.481153 -0.177151 0.240452 0.368977 -0.364130 -0.032953 1.016733 -0.771012 0.190385 -0.480352 0.548100
actually,-0.682729 0.983203 0.240486 -0.523399 0.510885 1.109115 0.070934 0.654100 -1.027748 -0.736071 -0.292143 0.913445 -1.436630 0.974682 -0.436330 -0.441917
information,-0.040693 -0.630225 0.112210 0.718534 0.329621 -0.022193 0.604668 0.170547 0.527851 0.059729 -0.147818 -0.003995 0.393188 -0.920224 0.031552 0.266974
else,0.825383 -0.441739 -0.082164 0.141627 0.842227 0.051228 0.886859 0.974998 1.245364 0.474125 -0.399316 -0.211425 0.258256 -0.989769 0.280524 -0.126440
without,-0.239269 0.026230 0.051689 -0.132609 -0.266655 -0.103124 -0.616759 -0.996854 -0.046199 0.364429 1.580665 -0.180120 -0.003725 0.954571 0.281540 0.330544
live,0.901746 0.199141 0.543005 0.867006 0.262072 -0.599085 0.381263 0.477624 0.155468 0.316818 -0.367212 -0.365907 0.075051 -0.628261 0.803102 -0.156774
excellent,-0.404461 0.186319 -0.197552 -0.173719 -0.372923 -0.088186 0.430435 0.479317 -0.557793 0.003669 -0.445058 1.268505 -0.280680 -0.479386 -0.235694 0.012263
big,0.726350 -0.013575 -0.500215 -0.074518 -0.115705 -0.194842 0.487497 0.411858 -0.340803 0.249668 -0.440517 0.673395 0.434738 -1.284488 -0.002451 0.166695
high,-0.569024 -0.011073 -0.048349 -0.032237 -0.134448 0.128103 0.383043 0.367086 -0.941245 -0.046237 -0.354673 1.294861 -0.172119 0.026667 -0.425895 -0.265752
three,0.111666 0.317403 -0.584205 0.076092 -0.242515 -0.297962 0.639525 0.186813 -0.319480 0.193425 -0.462251 0.925638 0.839772 -1.129731 -0.307641 0.159341
country,-0.251794 -0.462041 0.263262 0.286144 -0.850059 -0.073915 0.406932 0.027550 -0.153793 -0.059504 0.412804 -0.322043 -0.458547 -0.209708 -0.829999 -0.045638
sent,1.189804 -0.334878 0.756358 0.934528 -0.166564 -0.256776 0.241946 0.350544 0.286179 0.140738 -0.481030 -0.541457 -0.160577 -0.158159 1.425783 -0.271587
house,-0.319401 -0.600033 0.016819 0.430109 -0.192107 -0.164103 0.474966 0.031910 0.212120 -0.054554 0.181822 -0.178478 0.037544 -0.708217 -0.455885 0.096456
someone,-0.144438 -0.443966 -0.411125 -0.102113 0.459942 1.371055 0.123169 -0.008720 1.358302 0.273867 0.561622 -0.151044 0.549197 0.067812 0.709887 0.322113
war,-0.087474 -0.148970 -0.092418 0.364788 -0.524171 -0.244112 0.545953 0.083365 -0.182461 -0.083568 0.377337 -0.392432 -0.451363 -0.516727 -0.622046 0.153871
why,-1.012468 0.392360 0.354849 0.225580 0.132605 1.304515 0.414382 0.626347 -0.561265 -0.239442 -0.112129 1.122037 -1.339106 0.743155 0.045712 -0.240257
gas,-0.197443 -0.318573 -0.517017 0.389693 -0.448519 -0.212731 0.306274 -0.107263 -0.400401 -0.026933 -0.086474 0.296132 0.078504 -0.496050 -0.445310 0.067608
per,-0.257478 0.054159 -0.285641 0.131266 -0.807349 -0.406618 -0.384766 -0.599666 -0.333020 0.142959 0.792369 0.300371 -0.040877 0.645901 -0.342014 -0.096057
working,1.063427 -0.059505 -0.093417 1.733272 0.158790 -0.354696 0.577634 -0.023958 0.247309 0.065921 -0.132839 -0.342265 -0.407284 -0.010472 0.747749 -0.150876
small,-0.548118 0.242181 -0.343217 -0.259364 -0.065799 0.287150 0.434836 0.519069 -1.134759 -0.185332 -0.369858 1.634224 -0.051677 0.166232 -0.436462 -0.350649
trying,2.007181 -1.201973 1.105329 0.933979 -0.178932 0.268116 0.269234 0.663583 1.173224 0.457510 -0.619111 -0.764817 -0.268572 0.017394 0.617737 -1.055412
until,-0.897290 -0.471796 -0.174267 -0.277931 -0.191682 1.231663 -0.615546 -0.461097 0.156644 0.328531 1.398270 0.196770 -0.192573 1.511339 0.889168 0.300943
part,0.138664 -0.874916 0.192955 1.833548 0.669158 -0.184415 0.185961 0.053577 0.629332 -0.504487 -0.035957 -0.015731 0.278504 -1.219726 -0.259569 -0.093885
india,-0.380945 -0.171744 0.016999 0.023481 -0.549484 0.257797 0.078606 -0.158473 0.625502 0.096388 0.408964 -0.106386 0.006015 -0.229822 -0.748829 0.142954
date,-0.406534 -0.485755 0.150995 0.333556 -0.586431 -0.347579 0.404847 0.211883 -0.025064 -0.254667 0.159045 -0.078556 -0.549826 -0.524729 -0.768862 -0.001087
must,1.538737 2.372260 -0.079375 1.091595 -0.347729 1.046502 0.961456 0.401417 0.616259 0.152826 -0.132290 -1.088705 -1.086668 0.849566 -0.770117 0.026993
john,-0.055391 0.280573 -0.203292 -0.239421 -0.914692 -0.434381 0.130446 -0.091233 -0.171951 -0.518039 -0.236456 -0.165461 -0.367905 -0.535784 -0.690113 0.155511
government,0.073339 -0.573285 0.007308 0.154526 -0.535404 0.173058 0.519259 0.162327 -0.093220 -0.042884 0.132797 -0.307205 -0.331122 -0.718716 -0.589302 -0.078708
least,-0.524841 0.194991 0.030768 -0.094656 -0.488295 -0.003377 0.481479 0.770930 -1.097703 -0.246796 0.723958 0.874405 1.011625 -0.398671 0.910824 0.133801
area,-0.288026 -0.716916 0.121578 0.338424 -0.719580 -0.130129 0.535625 0.105935 -0.118152 -0.148792 0.361916 -0.406106 -0.340162 -0.481926 -0.550589 -0.004746
believe,0.919242 -0.200835 0.907198 0.233033 -0.428179 0.810873 0.046298 0.844000 0.009327 0.136098 -0.804809 -0.703745 -0.057114 -0.324900 2.033708 -0.020592
ok,-0.990990 -0.434314 0.531211 -0.000384 -0.343384 -0.403652 0.183584 0.214853 0.137335 -0.163123 -0.302337 0.984759 -0.716686 -0.068433 -0.439416 0.203959
enough,-1.035994 -0.581764 0.833445 0.264498 0.231092 0.112126 0.277156 0.415633 -0.596626 -0.136376 -0.319887 1.170912 -0.692640 0.155821 -0.394557 -0.645126
review,0.438737 -0.275685 0.414580 0.093340 -0.369436 -0.633266 0.570543 0.241564 -0.218650 0.072777 0.562149 -0.349013 -0.227472 -0.316727 0.644677 0.030781
hard,0.776316 -0.796890 0.114141 0.344622 0.276036 -0.221521 0.518339 0.488753 0.649559 0.458642 -0.365957 -0.112119 -0.098919 -1.039895 0.174843 -0.405014
says,0.966054 0.186211 0.732047 -0.129897 -0.296324 -0.306991 -0.273588 0.919799 0.188560 -0.012890 -0.987443 -1.236765 -0.017336 -0.262326 1.272494 -0.327999
probably,-0.871969 1.346100 0.377252 0.222271 0.508512 1.068828 0.515834 0.443373 -0.737647 -0.337556 -0.065756 1.372911 -1.333791 0.729327 -0.476090 -0.460757
read,1.164056 -0.123067 0.698110 0.173598 0.072369 -0.735540 0.821824 0.422915 0.120773 0.259843 0.219751 -0.007689 0.155807 -0.347306 1.875776 -0.192794
qaeda,-0.120245 0.501440 0.064096 0.212096 -0.921320 -0.176530 -0.580339 -0.133895 -0.423331 -0.383485 -0.808284 -1.193122 -0.036552 -0.096078 -0.455369 -0.455894
tell,1.063234 -0.684735 0.360365 0.670171 -0.647026 0.590457 0.709236 0.701181 -0.057173 0.614058 -0.303290 -0.520781 -0.141212 0.544315 2.333299 0.055300
later,-0.996793 -0.036109 0.836681 -0.275591 0.037082 0.033330 0.220356 0.459768 -0.834384 -0.159352 0.039414 0.777850 -0.749863 0.525560 0.051465 -0.437801
wanted,1.562711 -0.795033 0.852338 0.481721 -0.298058 0.223780 -0.056191 0.955231 0.781018 0.165542 -0.815525 -0.923929 -0.163019 -0.280236 1.069949 -0.763463
oil,-0.290205 -0.288891 -0.246861 0.132988 -0.715270 0.153477 0.437694 0.032737 -0.533969 -0.108074 0.025617 0.504613 0.079339 -0.282403 -0.354582 -0.272047
send,1.326646 0.023914 0.275293 0.486402 -0.424656 -0.177675 0.455990 0.643544 -0.122725 0.122717 -0.378284 -0.516855 0.011955 0.444006 2.542037 -0.078492
list,-0.572183 -0.681969 0.267614 0.508373 -0.472633 -0.530965 0.411909 0.076087 -0.251077 -0.282796 0.274678 0.104748 -0.320491 -0.344690 -0.763445 -0.296499
percentage,-0.490682 -0.658241 0.309950 2.012229 0.012348 -0.182667 -0.515853 -0.296251 0.218739 -1.354345 -0.454614 0.389930 -0.236829 -1.186110 -0.339534 -0.233127
everything,-0.079652 -0.282850 -0.288400 -0.208568 0.678048 1.113878 0.040582 0.095873 1.544562 -0.101349 0.206564 -0.165636 0.320481 -0.204898 -0.103163 0.676582
horse,-0.751255 -0.282229 0.210550 0.703173 -0.450319 0.465631 0.584382 0.076236 -0.316588 -0.248065 0.097095 0.315805 -0.420926 -0.275879 -0.637796 -0.334640
6,-0.451666 -0.195978 -0.101672 -0.125530 -0.351434 -0.853967 0.444975 0.520204 -0.193351 -0.033061 -0.316762 0.533029 0.320248 -1.114132 -0.565906 0.366632
months,-0.593478 -0.327828 0.269986 -0.053950 -0.380118 -0.190975 0.499394 0.310785 -0.181826 0.143955 0.303247 0.226599 -0.151347 -0.332210 -0.470857 0.188826
school,-0.265607 -0.481358 -0.048893 0.458789 -0.342200 -0.105666 0.452178 -0.072538 0.098193 -0.074113 0.241546 -0.268014 -0.100363 -0.431208 -0.510668 0.069094
start,0.812561 -0.021301 0.260002 0.605616 -0.171058 0.014815 0.662741 0.099428 -0.152149 0.119588 0.248885 -0.308314 -0.200619 -0.202881 0.539084 -0.110304
forward,-0.269279 -0.749997 0.809000 0.145378 0.008808 0.485159 -0.052118 0.135903 -0.472690 0.171006 0.373827 0.194107 -0.898023 0.208833 0.166568 -0.607002
due,-0.883448 -1.354684 1.072290 0.645293 -0.087276 0.795362 -0.406401 -0.181089 0.125799 0.184487 0.111192 0.743211 -0.729998 0.260315 -0.325179 -0.911720
international,-0.315220 -0.198183 -0.458102 0.032170 -0.438743 -0.148790 0.426233 0.228711 -0.900084 -0.187574 -0.522187 1.197927 0.357111 -0.373360 -0.555925 0.024022
national,0.561977 -0.286139 -0.948828 0.361491 -0.371704 -0.282668 0.526078 0.111726 -0.373829 0.184352 -0.414297 0.514434 0.542103 -0.721133 0.303912 0.118629
different,-0.641341 -0.105586 -0.327222 0.205321 -0.171456 0.112657 0.469692 0.234340 -1.065449 -0.063413 -0.485664 1.512475 0.393115 0.000889 -0.403960 -0.331324
!!!,-1.863156 1.554764 0.459122 -1.372372 -0.275266 -0.808301 -0.424210 1.092609 -0.391810 -1.143894 -0.759329 -0.429397 -0.620323 0.188149 -0.936761 -0.812991
20,0.227516 -0.099038 -0.448842 -0.245594 0.217124 -0.423352 0.383326 0.745248 0.316059 0.305971 -0.484999 0.803945 1.066937 -1.314314 -0.012192 0.289450
leave,0.921765 0.157059 0.710770 0.029103 -0.232857 -0.617200 0.157415 0.604341 -0.413806 0.040670 -0.125461 -0.635972 0.236089 0.048077 1.853476 -0.250400
below,-1.128276 -0.358585 0.694680 -0.385280 -0.128655 -0.485330 -0.016333 0.556994 -0.318848 -0.013757 0.593611 0.659540 -0.846357 0.988746 -0.844629 -0.281298
yet,-1.245178 0.591901 1.021050 -0.773768 0.384313 0.379377 -0.651516 1.261505 -1.024457 -0.386868 -0.648155 0.486603 -0.822953 -0.023680 0.147369 -0.118500
free,0.460041 -0.541046 -0.184746 0.285356 0.068320 -0.153935 0.254331 0.678225 0.141682 0.181600 -0.371754 0.335824 0.265533 -1.216806 0.240116 0.041211
....,-1.008609 1.225514 0.341290 -1.010028 -0.429520 -0.328368 -1.112956 0.751996 -0.566510 -0.742287 -1.112719 -1.804068 -0.221175 -0.911917 0.106818 -0.208069
possible,-0.685461 -0.176295 0.484275 0.147664 0.006786 -0.164178 0.319140 0.631920 -0.716933 -0.114705 -0.084786 0.594311 -0.205297 -0.120778 -0.422023 -0.212535
received,0.963519 0.167699 0.806350 0.543474 -0.098592 -0.712710 0.194842 0.195889 -0.377469 -0.135071 -0.066935 -0.648057 -0.046490 0.101238 1.692584 -0.202280
stay,0.587953 0.088741 0.567378 1.331870 -0.146465 -0.477202 0.394941 -0.114163 -0.159847 0.145285 0.007443 -0.535308 -0.219445 -0.071331 0.657230 -0.037215
line,-0.717106 -0.079469 0.077666 0.645914 -0.417953 0.060225 0.354481 0.104364 -0.374348 -0.391239 0.025967 -0.020530 -0.404820 -0.091270 -0.486897 -0.243182
case,0.398635 -0.643151 -0.105032 0.620483 -0.438578 -0.231406 0.419800 0.345855 -0.081962 -0.030247 0.206453 -0.505776 -0.337122 -0.471834 -0.099631 0.113246
george,0.201613 0.553289 -0.302532 0.481039 -0.950220 0.059063 0.095267 -0.553238 -0.232012 0.046618 -0.406679 -0.484498 -0.354606 -0.169871 -1.182417 -0.087666
real,0.804339 0.062553 -0.766240 -0.235510 0.046691 0.041184 0.460058 0.630141 -0.430768 0.277535 -0.422717 0.653266 0.523299 -1.350567 0.068848 0.238345
thought,0.665927 -0.500122 0.080958 0.795190 -0.716947 1.028343 0.108675 0.696016 -0.088453 -0.124505 -0.329626 -0.641804 -0.607881 0.055379 1.601158 0.200205
letter,0.219014 -0.581897 -0.125406 0.541381 -0.530809 0.159828 0.296969 -0.131848 -0.202175 -0.014567 0.065263 -0.423687 -0.394054 -0.636261 -0.264135 -0.248352
bit,-0.283383 0.191826 0.067747 0.610661 -0.027841 -0.252588 0.387647 0.092520 -0.517083 0.083562 0.202367 0.238676 -0.253591 -1.083953 -0.107866 0.188607
taking,1.719120 0.262753 0.397595 0.525905 -0.036237 -0.830372 0.810222 0.477821 0.200008 0.255088 0.401820 -0.095368 0.368308 0.167279 1.954325 -0.415876
friendly,-0.640882 -0.181880 0.290128 -0.515739 -0.264024 -0.217873 0.240734 0.975899 -0.492155 -0.230212 -0.330191 1.026467 -0.497065 -0.357390 -0.332075 -0.089650
month,-0.450941 -0.213882 -0.009551 0.403829 -0.551148 -0.016771 0.591918 0.058206 -0.478885 0.038556 0.086570 0.207603 -0.160595 -0.555451 -0.321335 -0.092436
needs,0.747211 -0.798056 0.731549 0.562960 -0.437208 0.026298 0.439202 0.022364 0.186499 0.191579 0.291814 -0.598498 -0.386718 -0.255997 0.113989 -0.436465
second,-0.587503 0.470889 -0.090141 0.107299 -0.033266 0.199774 0.329909 0.337190 -1.150106 -0.118845 -0.344216 1.686050 -0.266702 0.300690 -0.783470 -0.346948
pretty,-0.546861 0.748779 0.647448 -0.680677 0.485723 -0.406884 0.032288 0.432735 -1.238803 -0.297499 0.163841 1.477704 -0.815054 0.420681 0.123024 -0.523841
security,-0.121556 -0.445595 -0.441746 0.227049 -0.199913 -0.242613 0.326150 -0.224203 0.120354 0.004132 -0.132671 0.220017 0.412466 -0.555383 -0.348169 0.139395
friday,-0.625768 -0.219179 -0.192722 0.199005 -0.663432 -0.688724 0.303386 -0.182647 0.235650 0.032746 0.455609 -0.253412 -0.032874 0.043858 -0.888166 0.292006
talk,0.807520 -0.721806 0.919601 1.054858 -0.171868 -0.082855 0.357302 0.006074 0.036358 0.300212 -0.017362 -0.510253 -0.115045 -0.331006 0.496404 -0.270496
set,0.860374 0.100964 -0.022156 0.939621 0.235512 -0.219653 0.613965 0.293274 -0.254078 0.389408 -0.087410 0.079552 0.037479 -0.516088 1.484383 0.397979
report,-0.316258 -0.452179 0.113803 0.383518 -0.580996 0.014430 0.355617 -0.228449 -0.337524 -0.184778 0.152866 -0.026679 -0.686909 0.044570 -0.357457 -0.090784
check,1.004473 0.004202 0.058030 1.079896 -0.098641 -0.280034 0.597892 0.066667 -0.324324 0.241755 -0.000555 -0.199845 -0.080527 0.083268 1.398581 0.183871
full,-0.686650 0.176077 -0.145951 0.492305 0.120352 -0.066206 0.330334 0.256953 -1.104011 -0.227114 -0.409955 1.767969 -0.125471 0.092675 -0.334456 -0.387738
'd,1.242881 0.860248 -0.114691 0.489157 -0.225779 1.275699 0.787319 0.203239 0.466355 -0.109437 0.049363 -1.010740 -0.990668 1.184107 -0.101830 0.241663
dr.,0.151633 0.318072 -0.527297 -0.050058 -0.796640 0.050304 -0.098765 -0.222538 -0.635649 -0.502117 -0.718432 0.214299 0.178524 -0.713969 -0.493155 0.035035
pay,1.136803 -0.381097 0.613479 0.370927 0.231028 -0.717176 0.792501 0.285349 -0.026806 0.338583 0.333860 -0.189687 0.188203 -0.175673 1.410489 -0.396470
fact,-0.224174 -0.846751 0.863126 0.184229 -0.624759 0.563853 0.575186 0.269272 -0.394544 0.309419 0.261770 0.075062 0.119400 -0.745743 0.148740 0.298329
system,-0.037442 -0.780058 0.104350 0.106063 -0.524734 -0.212245 0.487814 0.129756 -0.068601 -0.030698 0.081092 -0.287594 -0.208202 -0.671420 -0.597582 -0.092819
customer,-0.748634 0.342949 -0.825845 0.435237 -0.674322 -0.127482 0.624125 0.120377 -0.493752 0.079876 0.100415 0.457129 -0.399557 0.150092 -0.053308 0.118212
energy,-0.078288 -0.647486 -0.457526 0.064532 -0.794385 -0.546869 0.398269 -0.248309 -0.415088 -0.099204 -0.059398 0.039817 0.088091 -0.397754 -0.752373 -0.146034
hours,-0.664781 -0.561172 0.477269 0.499821 0.038275 -0.261459 0.533071 0.195719 -0.303431 -0.034848 -0.001861 0.568118 0.108632 -0.713056 -0.161345 0.100096
within,-0.691161 -0.122581 0.333891 -0.471067 -0.412793 -0.618070 -0.472778 -0.650528 -0.603979 -0.068536 2.029962 0.657880 0.192130 1.154111 1.386241 -0.151449
highly,-0.525064 1.085271 0.339445 -1.222164 0.425109 0.945402 0.258338 0.592469 -0.507433 -0.639108 0.127024 1.141566 -1.564412 1.062883 -1.192775 -0.321126
places,-0.214402 -0.642608 0.064033 0.611338 -0.624162 0.465611 0.521521 0.181886 -0.133290 0.052052 0.225725 -0.293571 -0.315024 -0.614533 -0.085710 0.098790
understand,1.212525 -0.253231 0.880792 0.147262 -0.085949 -0.201176 0.902993 0.365628 0.182860 0.642967 0.058708 -0.206270 -0.021677 -0.055949 1.424477 -0.069483
everyone,-0.184999 0.098316 -0.555991 -0.020043 0.517670 0.952386 0.149967 0.087079 1.469712 -0.209180 0.242308 0.041268 0.407280 -0.252633 0.233778 0.657616
pakistan,-0.398768 -0.400063 -0.132351 0.109744 -0.565215 0.159598 0.069440 -0.087540 0.342423 0.076372 0.351620 -0.118490 -0.076721 -0.162339 -0.684705 0.255868
2005,-0.405898 -0.191359 -0.102110 -0.027208 -0.414912 -0.057338 0.741842 0.717989 0.504808 -0.366935 -0.421716 0.422929 0.799811 -0.831183 -0.756521 0.682537
couple,-0.275313 -0.721461 -0.157416 1.702725 0.276953 -0.110846 0.211307 -0.135104 -0.063687 -0.675459 0.054800 0.479539 0.348350 -1.137713 -0.429861 -0.177036
using,1.460506 0.237872 0.726425 -0.123856 -0.027876 -1.056897 0.468986 0.319339 -0.044866 0.118337 0.200409 -0.278475 0.393662 -0.172464 1.896194 -0.597113
open,-0.336721 -0.508634 0.677766 -0.114890 -0.243815 -0.083041 0.370088 0.134601 -0.630532 0.176732 0.305336 0.709883 -0.297900 -0.335112 0.491998 -0.250095
september,0.009360 -0.124414 -0.105408 -0.370637 -0.716521 -0.670402 -0.159488 0.160000 -0.670388 -0.531484 0.326572 0.070401 0.475611 -0.815023 0.162000 -0.404196
soon,-1.305711 -0.260954 1.703458 -0.036630 0.625403 0.274920 0.334908 0.446032 -0.749625 0.188743 0.326307 0.870025 -0.980864 1.091583 -0.672139 -0.296432
space,-0.216181 -0.551278 -0.362779 0.188514 -0.306756 -0.239138 0.331462 -0.093787 -0.440876 0.051752 -0.112750 0.452940 0.258578 -0.426783 -0.266662 0.113983
show,0.692485 -0.213156 0.340581 0.642774 -0.379639 -0.084054 0.598780 0.188676 -0.188400 0.555476 0.097830 -0.331712 -0.049955 -0.090415 1.199676 -0.013283
making,1.389090 0.035818 0.486934 0.326601 -0.032095 -0.669558 0.819184 0.296521 0.034699 0.387704 0.206863 -0.085331 0.166475 -0.064326 1.737464 -0.183348
question,-0.547381 -0.163420 0.130861 0.435396 -0.371924 0.027632 0.400857 0.194368 -0.291880 -0.556798 -0.012542 -0.002377 -0.616103 -0.409986 -0.708529 -0.117167
less,-1.188576 0.053046 0.899103 0.246033 0.436132 -0.069166 0.343404 -0.013638 -0.919978 -0.112440 -0.203415 1.663179 -0.292145 0.443908 -0.294772 -0.514053
hotel,0.036994 -0.476569 -0.189943 0.451128 -0.223820 0.066425 0.422686 -0.168256 0.077342 -0.060855 0.269429 -0.232077 -0.109839 -0.441896 -0.292174 0.100002
mark,0.103694 0.188479 -0.226259 0.185568 -0.848989 -0.589770 0.381579 -0.325439 -0.039375 -0.311286 0.143032 -0.092042 -0.512388 -0.397973 -0.437680 0.145579
<<,-0.299195 1.759277 -0.324400 -0.424135 -0.677786 0.149083 -1.400675 0.145150 -0.952692 -0.882771 -1.456945 -1.114148 0.078204 -0.866400 0.541029 0.032795
cost,0.337882 -0.616138 0.081430 0.872361 -0.159767 -0.148363 0.349215 -0.033534 -0.002633 -0.373074 0.371122 -0.334311 -0.371770 -0.717145 -0.211756 -0.329340
return,0.547925 -0.705859 0.303154 0.712955 -0.281450 -0.042845 0.445622 0.052456 -0.049230 0.227994 0.108706 -0.261055 -0.183419 -0.513678 0.283839 -0.184177
friends,-0.075880 -0.665948 0.305680 -0.214220 -0.439532 -0.071642 0.423627 0.639297 0.037507 0.245561 0.266808 -0.027986 -0.016649 -0.956860 -0.314707 0.245990
ask,1.110535 -0.628051 0.408408 0.598708 -0.408115 0.021140 0.591125 0.401257 0.013566 0.307802 0.272969 -0.479172 -0.226075 0.350407 1.460668 -0.158098
run,0.453607 -0.219032 0.336131 1.196462 0.018441 -0.438755 0.628696 -0.137648 -0.524485 0.258843 0.141955 -0.139254 -0.065071 -0.309455 0.993315 0.294418
several,0.795578 0.030994 -0.604940 0.263050 0.033131 -0.566010 0.469825 0.182643 -0.012653 0.325204 -0.459432 0.597091 0.563820 -1.078632 0.102289 -0.260716
friend,-0.318710 -0.236328 -0.059286 -0.059898 -0.574918 0.178692 0.539251 0.316393 -0.309734 -0.295338 0.201791 0.075340 -0.458163 -0.614293 -0.804612 -0.136945
mind,-0.027828 -0.438020 0.299570 0.253332 -0.168633 -0.196493 0.476070 0.033240 0.235900 0.295426 0.588993 -0.465032 -0.118606 -0.461806 -0.251168 0.146517
>>,-1.260234 1.332486 0.106452 -1.294615 -0.539541 -1.086823 -1.342469 0.717426 -0.333665 -1.023815 -1.296051 -1.968009 -0.265629 -1.029396 -0.377243 -0.314021
wo,0.915094 3.329345 1.096160 1.484466 -0.551049 -1.260439 1.095289 0.006258 1.038818 2.435532 -0.309956 -0.841157 -1.042670 0.363439 -1.496989 0.345585
wait,0.638367 -0.289332 0.548817 0.828035 -0.029914 -0.355911 0.190017 0.199996 -0.177711 0.192844 -0.092906 -0.541645 -0.123430 -0.418216 0.546677 -0.193834
early,-0.818773 0.034327 0.358871 0.173243 0.132396 0.115754 0.118489 0.349179 -1.049322 -0.073738 0.098530 1.650610 -0.128237 0.589128 -0.232899 -0.389600
process,-0.067558 -0.674938 0.017867 0.259735 0.012008 -0.120277 0.520717 0.139832 0.353490 -0.071687 0.085983 -0.175851 -0.002445 -0.782262 -0.400255 0.046376
2003,-0.584271 -0.700065 0.373444 -0.364661 -0.299607 -0.660203 0.574786 0.724968 0.186489 0.040789 -0.188449 0.191381 0.767756 -0.879887 -0.617219 0.664358
close,-0.562148 -0.830382 0.639685 0.397159 -0.144438 0.148806 0.185923 0.096513 -0.444768 0.003020 0.076712 0.633688 -0.394764 -0.140197 -0.269308 -0.591544
front,0.261909 -0.679371 -0.000899 0.820462 -0.304616 -0.318888 0.145285 0.241368 -0.287085 -0.261340 -0.012631 -0.100114 0.118335 -0.918460 -0.526728 0.048809
following,0.482523 -0.095377 0.039800 0.068018 -0.177697 -0.600688 0.419336 -0.482798 -0.112442 0.243011 0.792000 -0.268362 -0.092952 0.034148 0.711917 0.083331
comments,-0.437782 -0.292218 0.004011 0.307504 -0.179925 -0.186976 0.557521 0.379625 0.061183 -0.062740 0.091540 0.136310 -0.162829 -0.894662 -0.366537 0.321223
services,-0.392174 -0.471065 0.121794 0.159168 -0.622075 -0.167400 0.444517 0.047792 -0.424786 0.031462 0.091158 0.048660 -0.183691 -0.387849 -0.488326 -0.042079
means,1.075098 -0.700451 0.440074 0.460348 -0.390633 0.264235 0.592158 0.293839 0.154315 0.225429 0.161064 -0.602898 -0.420945 -0.042378 0.748363 -0.268746
whole,-0.510640 0.343520 -0.250472 -0.092241 0.005907 -0.042931 0.537684 0.315893 -1.313083 0.116083 -0.026724 1.725276 0.131968 -0.091158 -0.016008 -0.475082
plan,0.256746 -0.069804 0.002754 0.916918 0.034540 -0.136163 0.512029 0.010644 0.349988 0.182377 0.281935 -0.442893 -0.449627 -0.296723 0.017736 0.056110
visit,0.477298 -0.315443 0.443165 0.218830 -0.303905 -0.179930 0.409729 0.460824 -0.194724 0.128462 0.374894 -0.402543 -0.060745 -0.490856 0.606479 -0.265335
issue,-0.035066 -0.552810 0.120248 0.270506 -0.428834 -0.446278 0.532318 0.194881 0.105425 -0.005165 0.223720 -0.438622 -0.538889 -0.703953 -0.553647 -0.042544
based,-0.495200 0.840453 -0.091635 1.372480 -0.109668 -0.244993 -0.164486 -0.305511 -0.754670 0.016270 -0.220443 0.126546 -0.387516 -0.221279 0.182492 -0.245568
guys,0.010048 0.286227 0.023194 0.136308 0.215300 0.096014 0.523973 0.511994 0.138122 -0.041579 0.011353 -0.002113 0.021042 -1.083522 -0.179450 0.542322
either,0.276024 0.429447 0.152425 0.041219 0.104062 -0.358925 -0.194774 0.640431 -0.263056 0.031480 -0.485153 -0.323066 0.188466 -1.109892 0.417700 0.060296
children,-0.282494 -0.385073 0.087251 0.195275 -0.276150 0.204318 0.355150 0.606323 0.115399 -0.154119 0.048592 0.078718 -0.033203 -0.969702 -0.687948 0.210135
hand,-0.008510 -0.287614 -0.131268 0.341233 -0.365839 -0.277084 0.495136 0.414601 -0.371884 0.109667 0.179537 -0.213829 -0.308460 -0.866911 -0.361819 0.343325
quite,-1.191365 0.294199 1.012345 -0.682656 0.666735 -0.425637 -0.001260 -0.363629 -0.706223 -0.063018 0.621931 2.074411 -0.125402 0.727600 0.548809 -0.607522
including,0.278336 -0.096844 0.118065 -0.147163 -0.593821 -0.540876 -0.189794 -0.297629 -0.746141 0.032655 1.371052 -0.087117 -0.302928 0.387655 0.822223 -0.080164
mr.,-0.065083 1.372647 -0.599481 0.051011 -0.824987 0.031480 -0.009679 -0.364174 -0.490126 -0.024643 -0.847385 -0.078642 0.077253 -0.802596 -0.944684 -0.068085
fax,-0.282235 0.245751 -0.193848 -0.290061 -0.612688 -1.256140 0.203158 0.439276 0.325716 0.141153 -0.234978 -0.306179 -0.450892 -0.885054 -0.665988 -0.013353
along,-1.024089 -0.237582 0.173490 1.678881 0.390090 0.023649 -0.459046 -0.390113 -0.373412 0.063010 0.891294 0.555422 -0.969349 1.129299 0.528194 -0.049990
gave,1.048890 -0.152233 0.387830 0.470808 -0.681469 0.167357 0.377536 0.526908 -0.334377 0.539050 0.024838 -0.445833 -0.197976 0.287809 2.160418 0.092210
april,0.001068 -0.413370 -0.130908 -0.644799 -0.892310 -0.932536 0.091209 -0.037988 -0.340093 -0.406346 0.973606 0.279220 0.320499 -0.514228 -0.034364 -0.352144
americans,-0.309755 -0.674933 0.297597 -0.087777 -0.852461 1.291911 0.184633 -0.222906 0.772874 0.218124 0.562707 -0.322950 0.112256 -0.057471 -0.453919 -0.097149
almost,1.104262 0.003930 0.113185 -0.247662 0.992600 -0.324374 0.774366 0.338010 0.690184 0.423727 -0.090525 0.281955 0.780451 -0.922713 0.999831 0.164251
happy,0.490929 -0.486302 0.119733 0.580657 -0.059785 -0.079262 0.356870 0.469650 0.178193 0.334674 -0.353813 0.203687 -0.286808 -1.124282 0.513550 0.036159
problems,-0.952659 -0.601740 0.252963 0.232590 -0.483561 -0.442941 0.636561 0.152675 -0.123614 -0.051744 0.114573 0.128290 -0.382017 -0.194111 -0.486692 -0.156860
global,0.713756 -0.637197 -0.561072 0.164005 -0.367065 -0.147317 0.389497 0.157651 -0.293827 0.181758 -0.451949 0.304103 0.436026 -0.798492 -0.365958 -0.011879
message,-0.201029 -0.810944 0.036245 0.435337 -0.359383 0.175976 0.617106 0.214059 -0.214201 0.071290 0.065339 -0.171644 -0.247496 -0.825085 -0.261677 0.123311
kind,-0.423050 -0.853808 0.274081 1.760996 0.028003 -0.325435 0.074661 -0.298914 -0.081205 -0.860495 0.092458 0.298937 -0.434920 -0.753852 -0.486228 -0.455988
prices,-0.110612 -0.120389 0.080889 0.255084 -0.098128 -0.209685 0.509301 0.187329 0.353329 -0.054172 0.087081 -0.328289 -0.360066 -0.696619 -0.802875 0.345788
store,0.162430 -0.228475 -0.044826 0.605976 -0.433248 -0.126175 0.402216 0.060598 -0.065635 -0.174131 0.134665 -0.428667 -0.484761 -0.621732 -0.484700 0.046589
buy,1.053518 0.175395 0.785110 0.001504 0.093926 -0.650493 0.684642 0.327758 -0.333428 0.213548 0.341715 -0.114393 0.509910 -0.276511 1.762341 -0.388581
*,-0.990638 1.581502 0.217392 -0.819927 -0.358575 -0.399161 -1.154729 0.476941 -0.907764 -0.912200 -1.165435 -0.584927 -0.186340 -0.579612 0.095974 -0.315081
eat,1.027073 0.166770 0.645044 0.320840 -0.186960 -0.572517 0.337312 0.502480 -0.081510 0.196558 -0.034167 -0.540066 0.110690 0.022016 1.333586 -0.351464
town,0.003953 -0.223671 0.059808 0.195621 -0.245592 -0.417934 0.561178 0.493754 0.058748 0.056234 0.125386 0.012576 0.161393 -0.846947 -0.494191 0.395540
issues,-0.353495 -0.441677 0.087694 0.199687 -0.213806 -0.356570 0.622754 0.273221 -0.005418 0.059352 0.049201 -0.015617 -0.009944 -0.804875 -0.445904 0.244572
outside,-0.736367 -0.427540 0.370418 0.394294 -0.001689 -0.236751 -0.092760 -0.208442 -0.367175 -0.052722 0.394072 0.788417 -0.563727 0.343809 -0.259735 -0.379939
game,0.475829 -0.401402 -0.207755 -0.103822 -0.566467 -0.607656 0.225264 0.055367 -0.251578 -0.331286 0.490524 0.206952 -0.141634 -0.774155 0.237939 -0.194896
become,1.599252 0.682085 0.640664 -0.024432 0.149138 -1.143687 0.821408 -0.040344 0.167023 0.205343 0.327943 -0.079437 -0.030849 -0.121600 1.188329 -0.597909
monday,-0.730900 -0.655699 0.033342 -0.255360 -0.861708 -1.015506 0.611266 0.325888 0.021339 -0.252063 0.105637 -0.143281 -0.059114 -0.413957 -0.931862 0.152240
whether,-0.974440 -0.738520 -0.302443 -0.878012 0.299878 1.406795 -0.976010 -0.417257 1.450037 0.547978 1.312041 0.342811 0.378997 1.325809 0.844214 0.793011
2004,-0.427948 -0.407028 -0.004059 -0.454784 -0.376543 -0.586449 0.627361 0.558468 0.359643 0.075988 -0.330794 0.387656 0.632438 -0.934867 -0.579255 0.392904
together,-1.590978 -0.325687 0.857876 -0.176608 0.470227 -0.090894 0.170543 0.459810 -0.350422 -0.063894 0.135934 1.376949 -0.939336 0.909611 -0.414174 -0.659484
jeff,0.052437 0.270326 0.024976 -0.373124 -0.805485 -0.524475 -0.150565 0.239556 -0.126513 -0.534620 -0.298614 -0.513345 -0.637162 -0.601886 -0.711392 0.322798
helpful,-0.738131 -0.557115 0.791593 -0.345635 -0.070414 -0.447765 0.417835 0.920742 -0.360258 0.169937 -0.168587 0.897755 -0.516214 -0.603071 -0.408909 -0.026612
restaurant,-0.874193 -0.347917 -0.001086 0.480533 -0.520588 -0.163051 0.561735 0.052126 -0.093958 -0.232583 0.156755 0.228603 -0.331536 -0.191784 -0.514647 -0.140467
others,-0.029589 -0.434345 0.004066 0.205374 0.039190 0.287965 0.466716 0.578010 0.525692 0.109431 -0.057238 -0.153217 0.164607 -0.752287 -0.299739 0.400839
top,0.611104 -0.654292 -0.298892 0.742531 -0.167759 -0.543797 0.279497 0.064412 0.061409 -0.288239 0.172292 -0.056551 0.064754 -0.757980 -0.187800 -0.308387
minutes,-0.048616 -0.727430 0.362387 0.456702 -0.079917 -0.243116 0.474524 0.191554 0.040927 0.194590 0.095135 0.027270 0.147759 -1.084656 -0.014785 0.297011
legal,-0.643730 -0.131338 -0.318366 0.022233 -0.193158 -0.019098 0.398632 0.290693 -0.954865 -0.009097 -0.550572 1.470097 0.105986 -0.097914 -0.340532 -0.205313
above,-0.631579 -0.160580 0.580093 -0.217558 -0.281864 -0.473197 -0.054915 0.248269 -0.527783 0.057504 0.948598 0.334876 -0.589191 0.766040 -0.402389 -0.206103
remember,0.736946 -0.364381 1.145589 0.159966 -0.394659 -0.102650 -0.112460 0.274016 -0.207505 0.235942 -0.476069 -0.598326 -0.042678 -0.555592 1.090636 -0.119818
clean,0.502698 -0.601099 -0.120248 -0.220103 -0.142495 -0.605578 0.226201 0.774814 -0.053259 0.254401 -0.281252 -0.079123 -0.245278 -0.869518 -0.139868 0.244282
july,-0.026862 -0.015452 -0.246760 -0.431666 -0.774106 -0.693964 -0.253524 0.327738 -0.654167 -0.639110 0.377117 0.112074 0.444684 -0.743284 0.321824 -0.401618
2001,-0.442410 -0.337097 0.118171 -0.450489 0.061661 -0.554570 0.384657 0.834940 0.560783 -0.027046 -0.301011 0.434569 0.789587 -1.150121 -0.492397 0.742821
although,-0.352620 -0.239421 0.134659 -0.155494 -0.429141 0.692036 -0.203197 -0.265152 -0.197400 0.062580 1.002797 0.142773 -0.786337 0.641815 0.907940 0.356081
ago,0.557870 -0.731699 0.137190 -0.436576 1.124566 -0.934540 0.736582 1.038574 1.595423 0.499926 -0.293303 -0.313212 0.291909 -0.799803 -0.020768 0.450088
important,-0.732744 -0.351756 0.430962 0.176693 -0.188733 0.328263 0.200052 0.460883 -0.554901 -0.117532 -0.301034 1.496978 -0.475668 0.016270 -0.251398 -0.553563
cat,-0.519958 -0.156195 0.002170 0.204247 -0.490413 0.850547 0.569484 0.275803 -0.223317 -0.491525 0.092626 0.210315 -0.629351 -0.323552 -0.905334 -0.456021
quality,0.322031 -0.331247 -0.332908 0.927582 -0.214114 -0.354235 0.150271 0.106043 -0.143393 -0.138017 0.042995 -0.167905 -0.281175 -0.840665 -0.431412 -0.020881
maybe,-0.664227 0.163788 0.761093 -0.107585 0.135621 1.454113 0.096630 0.566028 -0.939915 -0.288218 0.115166 1.371189 -1.311565 0.653544 0.720025 0.018620
market,-0.083174 -0.685226 -0.083018 0.011895 -0.564968 -0.418219 0.381258 0.195894 -0.398308 -0.047870 0.033990 0.051302 -0.159244 -0.645256 -0.602273 0.128317
likely,-0.580301 -0.647889 0.949088 0.244501 -0.056569 0.976966 0.251347 0.195670 -0.416123 -0.076465 -0.268089 0.897632 -0.885243 0.005467 -0.078560 -0.653509
file,-0.077193 -0.215630 0.116907 -0.134270 -0.473320 -0.986808 0.471392 0.077195 0.318676 0.042761 0.285541 -0.282988 -0.415360 -0.732481 -0.322003 -0.307458
fine,0.390610 -0.515254 0.136960 0.111225 0.092576 -0.720940 0.498349 0.640767 0.302014 0.375144 -0.404455 0.200888 -0.239918 -1.113790 -0.085317 0.120089
texas,-0.111400 0.242185 -0.393842 -0.114778 -0.848764 -0.480897 -0.069226 0.145103 -0.608829 -0.293830 -0.169231 -0.357259 0.133107 -0.545665 -0.565229 0.052517
weeks,-0.684047 -0.261386 0.212502 -0.053677 -0.512810 0.125911 0.585303 0.462497 -0.532744 -0.269836 0.390916 0.478972 -0.414418 0.111387 -0.195636 -0.225119
add,1.115303 0.438498 0.927065 -0.017642 -0.028619 -0.567789 0.360476 0.400655 -0.122490 0.186280 -0.005393 -0.283023 0.293814 -0.420601 1.808816 -0.479784
>,-1.306473 1.608815 0.019858 -1.043863 -0.585574 -0.959910 -1.225029 0.579658 -0.299455 -1.025077 -1.242535 -1.736485 -0.194726 -1.052881 -0.218517 -0.347118
provide,1.452805 0.154728 0.689912 0.282873 -0.026385 -0.669064 0.439460 0.223983 -0.200282 0.095204 -0.060004 -0.502219 0.199684 0.118857 1.429522 -0.483553
credit,-0.017833 -0.183487 -0.421899 0.378383 -0.487613 -0.000169 0.326289 -0.195432 -0.684627 0.050065 0.014431 0.194742 -0.148590 -0.402708 -0.536739 -0.219710
members,-0.302195 -0.793682 0.440317 1.125463 -0.387943 0.242707 0.301086 -0.242009 -0.120735 -0.420427 0.233454 -0.220975 -0.408337 -0.436370 -0.655930 -0.366806
given,0.632999 0.140398 0.916645 0.278486 -0.248482 -0.723780 0.005869 -0.091979 -0.726072 0.013596 -0.018082 -0.562143 0.077070 -0.154965 1.913412 -0.104995
program,-0.691741 -0.722439 0.156182 0.150920 -0.650923 0.085117 0.579150 0.204877 -0.050251 -0.311799 0.000275 -0.083714 -0.461718 -0.257683 -0.838542 -0.187658
large,-0.355993 0.227859 -0.292917 -0.142709 -0.315701 0.135603 0.380371 0.355996 -1.019492 -0.073507 -0.092007 1.388273 0.025798 -0.102834 -0.321657 -0.360447
morning,-0.344745 -0.900123 0.450514 -0.367523 -0.500510 -0.519261 0.353355 0.653461 -0.328085 0.098142 -0.008338 -0.255303 -0.315808 -0.901090 -0.633184 0.271690
available,-0.759420 -0.517257 0.645832 0.904765 0.111719 -0.146542 0.324222 0.240317 -0.375641 -0.036928 -0.261246 0.870928 -0.468517 -0.409806 -0.052180 -0.423398
<,-1.008877 2.269253 -0.610172 -0.590915 -0.435552 0.078389 -1.132551 0.234450 -1.062755 -0.655789 -1.233967 -0.766987 0.250339 -0.586802 0.206746 -0.696233
sara,-0.072227 0.716038 -0.069803 -0.482569 -1.013831 -0.748798 -0.145669 -0.007956 0.071981 -0.759272 -0.341048 -0.379588 -0.655159 -0.705673 -0.645620 0.209611
test,0.125233 -0.441070 -0.213978 0.111563 -0.441651 -0.291808 0.490326 0.078200 -0.194789 0.054217 0.259789 -0.244928 -0.299220 -0.537390 -0.179326 -0.131712
houston,-0.672943 -0.179224 -0.228176 0.192031 -0.808560 -0.787279 0.518361 -0.080484 -0.014447 -0.002118 0.233816 0.062405 0.224118 -0.197546 -0.428266 0.258761
dog,0.211942 -0.154650 -0.149862 0.249036 -0.445776 0.287061 0.537131 -0.016385 -0.309702 0.104844 0.331652 -0.343771 -0.395432 -0.752973 -0.565704 -0.133764
indian,-0.423618 0.029773 -0.707083 0.130934 -0.347638 0.070411 0.394675 0.232170 -1.141302 -0.087450 -0.499297 1.509638 0.411391 -0.041727 -0.367728 -0.148796
tried,1.635460 -0.402054 0.766061 0.638103 -0.127827 0.109078 0.244391 0.441130 0.421404 0.218021 -0.519969 -0.695259 -0.153854 -0.053123 1.069778 -0.661510
earlier,-1.026247 -0.151611 0.484671 -0.252335 0.004203 -0.192720 0.454459 0.487947 -0.800283 -0.152576 -0.171307 1.353481 -0.573199 0.550052 -0.621716 -0.410967
late,-0.684936 -0.208905 0.040276 0.680086 -0.119419 -0.027454 0.312077 0.156378 -0.957151 -0.297365 -0.167491 1.256957 -0.089307 0.323178 -0.295177 -0.299786
zawahiri,0.017473 0.304134 0.175324 -0.114448 -0.730612 0.537443 -0.098997 0.221651 -0.190053 -0.465654 -0.360542 -0.777700 -0.433331 -0.596209 -0.762100 -0.000809
air,-0.042971 -0.300066 -0.532435 0.017765 -0.667460 -0.551757 0.434837 0.051678 -0.457852 -0.067181 0.188061 0.036804 -0.069674 -0.500007 -0.425744 0.070410
draft,0.309986 -0.777465 -0.013771 0.448021 -0.321882 -0.165601 0.429745 -0.064888 -0.243624 -0.077145 0.157304 -0.327644 -0.368651 -0.648457 -0.382173 -0.009268
hair,0.085777 -0.391055 -0.114390 0.182002 -0.344513 0.175546 0.661177 0.064036 -0.340295 0.103396 0.443444 -0.492318 -0.472422 -0.623964 -0.288040 -0.022750
b,-0.461152 -0.172528 -0.393674 -0.326416 -0.636972 -1.034515 0.551496 0.352732 0.263350 -0.074675 -0.299597 0.398800 0.048280 -0.894791 -0.676106 0.084537
’s,0.483639 0.418901 0.218858 0.237113 -0.682622 -0.752278 -0.818667 0.023074 -0.963892 -0.120466 0.086760 -1.153474 -0.124826 0.800892 0.360594 -0.228052
peace,-0.597231 -0.625009 -0.049227 0.053325 -0.821870 -0.116406 0.358380 0.279389 -0.257286 -0.108395 0.197286 0.356873 -0.153522 -0.084298 -0.454423 -0.283547
form,0.100367 -0.802459 0.062436 0.698678 -0.229553 -0.487594 0.377797 -0.040180 -0.095394 -0.258191 0.405107 -0.387736 -0.382951 -0.675188 -0.371021 -0.189135
fun,-0.433653 -0.376498 0.036244 0.427309 -0.354346 -0.414784 0.531601 0.179361 -0.424479 0.019501 -0.181939 0.439425 -0.100610 -0.578262 -0.437660 0.061377
south,0.134608 -0.581520 -0.352046 0.481073 -0.366010 -0.521770 0.168352 -0.303206 -0.076152 -0.073846 0.113177 0.052662 0.245080 -0.336570 -0.625920 0.087213
north,-0.292544 -0.320867 -0.386249 0.162910 -0.664577 -0.372540 -0.052542 -0.331859 -0.286140 -0.123362 0.134257 0.597678 0.016103 0.061505 -0.815090 -0.074521
note,0.426056 -0.558500 0.722762 0.131665 -0.597537 -0.173314 0.359969 -0.000829 0.044728 0.367983 0.035344 -0.248644 -0.334563 -0.797101 0.351088 0.090666
discuss,0.772651 -0.133229 0.808862 0.214133 -0.217479 -0.722829 0.832449 0.450068 -0.208405 0.340507 0.429399 -0.344573 0.417896 0.133312 1.710841 -0.289583
meet,0.950721 0.058212 0.509648 0.901257 -0.028861 -0.565467 0.892610 0.425759 -0.009952 0.332618 0.446780 -0.224130 0.288019 0.134678 1.674651 -0.417281
answer,0.501985 -0.476358 0.529528 0.494312 -0.248663 0.042654 0.474401 -0.035126 -0.137280 0.015683 0.358841 -0.385313 -0.491739 -0.782140 0.148870 -0.121173
death,-0.374805 -0.376878 -0.078541 0.458086 -0.526600 -0.225346 0.379717 -0.134490 -0.369191 -0.200097 0.062796 0.250175 -0.104750 -0.316589 -0.694057 -0.285969
reason,0.013442 -0.809147 -0.142082 0.682867 -0.518780 0.393161 0.584662 0.355546 -0.408045 -0.056738 0.329738 -0.398391 -0.569018 -0.535607 0.261657 0.544276
worth,0.192300 -0.089299 -0.349198 0.154017 -0.194098 -0.160550 0.459208 0.447595 -0.437725 0.079347 -0.004673 0.259127 0.039853 -0.706017 1.807236 0.266941
nasa,-0.392535 -0.095086 -0.244414 0.021512 -0.621037 0.456602 0.289401 -0.111048 0.331568 -0.399234 0.350166 0.026494 -0.041706 -0.348067 -0.744888 -0.203333
especially,-0.641012 -0.235742 1.187317 0.739829 0.429895 0.395097 -0.208933 -0.091438 -1.016158 0.038198 0.421749 0.643237 -1.046173 0.516790 0.565559 -0.116399
regards,0.059544 -0.552860 0.256433 -0.465633 -0.834935 -1.252844 0.342404 0.206245 0.504172 -0.474457 -0.202297 -0.104223 -0.816518 -0.715459 -0.822672 0.591456
anthrax,-0.284910 -0.458219 -0.269150 0.163977 -0.467622 -0.272674 0.519795 -0.082473 -0.513662 -0.060466 -0.116116 0.245968 0.079467 -0.456343 -0.629989 -0.119500
law,-0.009006 -0.464891 -0.171394 0.270718 -0.670433 -0.054011 0.452115 -0.036572 -0.155626 -0.195633 0.042249 -0.189502 -0.150673 -0.522269 -0.656014 -0.016953
doctor,-0.347913 -0.019316 -0.184085 0.180707 -0.669042 0.319779 0.542947 0.224330 -0.094596 -0.185338 0.089450 -0.076216 -0.564640 -0.598553 -0.854321 -0.146497
further,-0.640100 -0.122357 0.223919 -0.235605 0.001531 0.137748 0.195227 0.475370 -0.961532 -0.247145 -0.063598 0.941795 -0.407387 0.441549 -0.222857 -0.456013
afghanistan,-0.371172 -0.467442 0.114452 -0.130424 -0.888592 -0.390205 0.247497 0.265628 0.167520 -0.169151 0.476485 -0.431283 -0.216212 -0.103051 -1.184731 0.239773
word,-0.019998 -0.548660 -0.091667 0.474853 -0.308102 -0.685588 0.506478 -0.132694 -0.425062 -0.128645 0.297641 -0.305675 -0.381382 -0.662160 -0.657053 0.104628
etc,0.139848 -0.747308 0.378164 -0.453906 -0.444387 -1.122129 0.273310 0.504823 0.306714 0.225971 0.051684 -0.528796 -0.755243 -0.387408 -0.759309 0.261740
rate,0.236159 -0.418987 -0.087757 0.441026 -0.429245 -0.003540 0.477956 -0.055005 -0.253328 -0.102596 0.131525 -0.149880 -0.259434 -0.669810 -0.101569 0.067553
support,0.517192 -0.221679 -0.108148 0.846034 -0.246951 -0.212989 0.365077 0.048200 -0.285575 0.029638 0.460465 -0.222442 -0.248679 -0.491428 0.525348 -0.149216
general,0.141208 0.313989 -0.301932 -0.081543 -0.272288 -0.248734 0.094909 0.579659 -0.325069 -0.039483 -0.474671 -0.054508 0.272205 -1.049129 -0.261974 0.193584
2000,-0.430208 -0.564472 0.130346 0.102041 -0.454334 -0.570410 0.394997 0.413945 -0.523656 -0.124614 -0.338399 0.118856 0.481856 -0.860527 -0.329135 0.481205
iraqi,-0.393201 0.364994 -0.670925 0.049671 -0.321145 -0.110725 0.405432 0.189872 -1.038778 -0.112108 -0.236104 1.326255 0.214655 -0.024157 -0.508545 -0.357513
coming,1.061926 -0.127717 0.497229 1.646474 0.111225 -0.358121 0.526882 0.174660 0.227365 0.298039 -0.230073 -0.410557 -0.296400 -0.169653 0.905482 -0.080478
kids,-0.065071 -0.394824 0.234000 -0.261259 -0.614556 -0.088032 0.529179 0.418330 -0.092458 0.198234 0.274738 -0.280485 -0.340464 -0.750198 -0.722616 0.052350
easy,-0.571783 -0.629502 0.456848 0.125398 -0.302063 0.149616 0.206263 0.445762 -0.435549 -0.075707 -0.253659 1.033897 -0.418617 -0.314239 -0.424364 -0.442032
regarding,0.233586 -0.276341 0.279858 -0.118509 -0.805494 -0.372464 -0.332678 -0.572336 -0.471291 0.051333 1.477046 -0.237265 0.087001 0.922516 0.527085 -0.066016
stop,1.004776 0.063017 0.282093 0.378556 0.040840 -0.126691 0.760529 0.374113 -0.040184 0.149869 0.044703 -0.364495 -0.126590 -0.135643 0.648494 -0.147403
canada,-0.574668 -0.679604 0.256641 -0.411215 -0.840804 -0.816080 0.371014 0.243633 0.183905 -0.070956 0.381029 -0.172422 0.064718 -0.259816 -0.888583 0.224490
israel,-0.472633 -0.360696 0.177345 -0.220318 -0.963444 -0.598787 0.282700 0.158728 0.300817 0.005302 0.595068 -0.368796 -0.148791 -0.040718 -1.010965 0.238088
former,0.845474 -0.002229 -0.688165 0.042057 -0.107212 -0.496481 0.314271 0.367077 -0.478226 0.297689 -0.232527 0.728905 0.427575 -1.131716 0.239597 0.156053
charge,0.549508 -0.874560 0.373214 1.101358 -0.332109 0.153423 0.582744 0.293255 0.028874 0.194709 0.073875 -0.420692 -0.192448 -0.057833 1.026319 -0.004557
young,-0.355266 -0.115350 -0.367680 -0.275169 -0.309064 -0.132331 0.328958 0.289328 -1.013791 -0.185880 -0.149479 1.406427 0.107948 -0.055056 -0.309815 -0.454594
guy,0.040840 -0.515986 0.169923 0.791254 -0.407912 1.012614 0.573647 0.057897 -0.091615 -0.140775 0.224959 -0.429112 -0.557920 -0.844741 -0.254366 -0.108210
request,0.269262 -0.610247 0.199472 0.798024 -0.073598 -0.531113 0.525337 -0.036861 -0.255738 -0.086503 0.370565 -0.445021 -0.350695 -0.489757 -0.021865 0.087274
tank,-0.313842 -0.773954 0.175575 0.019540 -0.556035 0.071909 0.440692 0.285857 -0.322203 -0.171408 0.302393 -0.111984 -0.503363 -0.372520 -0.593108 -0.102392
according,0.345178 -1.259452 1.440960 0.831433 -0.419187 0.935895 -0.950827 0.325744 -0.333361 0.135276 0.070072 -0.306412 -0.754242 0.314479 -0.302985 -0.495540
#,-0.029164 1.059154 -0.314876 -0.803098 -0.428863 -1.123580 -0.554808 0.433818 -0.602594 -0.761035 0.082471 -0.141472 0.230878 -1.216360 0.569701 -0.400009
bill,0.187917 0.116212 -0.149249 0.397780 -0.636181 -0.394659 0.026745 -0.197934 -0.409293 -0.139724 -0.069913 -0.472192 -0.468071 -0.503917 -0.392768 0.117818
11,-0.553892 0.916790 -0.439553 0.354325 -0.599994 -0.554574 0.409832 0.427935 -0.104068 -0.023841 -0.320750 0.426225 0.028066 -1.063225 -0.785484 0.254003
needed,1.252826 -0.320846 0.455002 0.698613 -0.080757 -0.334983 0.522142 0.642988 0.456629 0.190567 -0.118420 -0.569387 -0.243231 -0.090432 0.733249 -0.359492
professional,0.515135 -0.397331 -0.310009 -0.209532 -0.217539 -0.339123 0.267941 0.737479 -0.051223 0.388865 -0.267838 0.308467 -0.088922 -1.083003 -0.136535 0.108257
news,-0.471118 -0.537567 0.087213 0.270229 -0.506651 -0.202715 0.420104 -0.160771 -0.345975 -0.123162 0.076253 0.195770 -0.267321 -0.193249 -0.644791 -0.077087
started,1.233167 0.074820 0.647440 0.742687 -0.076257 -0.150961 0.114398 0.440809 0.116591 0.173096 -0.475909 -0.978333 -0.133354 -0.106557 0.706081 -0.424125
continue,1.577728 -0.379078 0.726581 0.340780 -0.286926 0.258072 0.394983 0.612679 0.659102 0.182410 -0.007898 -0.497511 -0.147114 -0.199141 0.931768 -0.902075
mean,1.073599 -0.376772 0.669935 0.162245 -0.220773 -0.250827 0.708331 0.377918 -0.009164 0.331343 0.062832 -0.275103 -0.449071 -0.132862 0.842257 0.122027
city,-0.148342 -0.608203 -0.103996 0.171750 -0.821999 -0.271261 0.402532 0.102340 -0.109310 -0.279353 0.317793 -0.268717 -0.315696 -0.496812 -0.694881 -0.076856
local,0.903301 -0.340566 -0.555680 0.184297 -0.030528 -0.356881 0.425257 0.333428 -0.188761 0.430094 -0.325951 0.334745 0.263777 -1.034594 -0.021049 -0.037511
points,-0.437243 -0.470270 -0.071546 0.833019 -0.301631 -0.550327 0.481590 -0.220968 -0.364945 -0.162424 0.199762 -0.049059 -0.310543 -0.453121 -0.317591 -0.169178
cage,0.067501 -0.886903 0.112194 -0.190037 -0.542136 0.004799 0.513040 0.519720 -0.100092 -0.038803 0.296450 -0.397061 -0.458149 -0.732711 -0.652250 0.062835
move,0.857312 -0.739819 0.686566 0.796471 -0.198264 -0.127079 0.461786 -0.000022 -0.237834 0.299933 0.247525 -0.343401 -0.152937 -0.210227 0.881250 -0.206127
upon,-0.304718 -0.171802 0.177503 -0.052424 -0.550916 0.013311 -0.387241 -0.530183 -0.426347 0.207881 1.353995 0.206798 -0.241372 1.054314 0.839105 0.107145
door,-0.185867 -0.614671 -0.015772 0.021747 -0.654989 -0.046850 0.523115 0.150235 -0.387126 -0.006647 0.322669 -0.061895 -0.370519 -0.540252 -0.495302 -0.099700
mike,0.075236 0.835417 -0.266204 -0.164668 -0.917418 -0.139948 -0.053138 -0.054868 -0.154170 -0.504692 -0.221852 -0.386454 -0.584369 -0.509458 -0.422680 0.103517
past,-0.597777 0.020133 -0.418409 -0.228332 -0.363062 -0.095356 0.337942 0.323546 -0.897501 -0.121014 0.452086 1.195772 -0.037412 0.350354 0.109641 -0.322877
finally,-0.416973 0.667876 0.469067 -0.979032 0.285134 1.128673 0.138034 0.811441 -0.821221 -0.713310 -0.074372 0.637196 -1.608283 0.856256 -0.759015 -0.115885
man,-0.103959 -0.352607 0.016904 0.675082 -0.554701 0.349963 0.559360 0.162720 -0.137736 0.004442 0.218984 -0.306325 -0.413987 -0.764759 -0.454254 0.071807
wonderful,0.590804 -0.047430 -0.377622 -0.035826 -0.048331 -0.672834 0.432449 0.605814 -0.055612 0.434643 -0.410372 0.322817 -0.182137 -1.118291 -0.051969 0.243801
recently,-0.571470 0.592777 0.500319 -0.431187 0.137580 0.877475 0.315925 0.472510 -0.582040 -0.509760 -0.125276 0.682886 -1.429227 0.786580 -1.006675 -0.297174
:),-0.931734 0.957671 0.058250 -1.134555 -0.284744 -0.397914 -0.049214 1.055878 -0.348752 -0.532125 -0.576641 -0.202997 -0.274431 -1.031995 -0.402374 0.109146
four,0.038280 -0.022810 -0.353762 0.051447 -0.426211 -0.481360 0.536674 0.127711 -0.607087 -0.021311 -0.284358 0.836216 0.617861 -1.146397 -0.241309 0.067765
changes,-0.073994 -0.774406 0.072206 0.504158 -0.448366 -0.112227 0.477877 0.093482 -0.057741 0.207082 0.231174 -0.446265 -0.512204 -0.610575 -0.317499 -0.091967
options,-0.399231 -0.596576 0.192896 -0.105829 -0.608635 -0.200352 0.530881 0.197798 -0.167604 -0.014379 0.323441 -0.186458 -0.494990 -0.448383 -0.600303 -0.189949
level,-0.346902 -0.772806 0.123477 0.771077 -0.339759 -0.386684 0.273963 -0.103891 -0.325139 -0.356982 0.067446 0.000522 -0.298961 -0.458733 -0.709786 -0.139509
ones,-0.084476 -0.676650 0.088437 0.165815 -0.717730 0.732598 0.601429 0.235081 0.004935 0.280889 0.103957 -0.433478 -0.521745 -0.667803 -0.188551 0.021011
address,0.417577 -0.408700 0.189422 0.330672 -0.102773 -0.336753 0.547110 0.266271 -0.152904 -0.016907 0.273876 -0.384764 -0.452566 -0.508012 -0.001695 0.071081
team,-0.113954 -0.337192 -0.062245 0.590543 -0.461787 -0.143469 0.420530 0.079458 -0.105217 -0.029486 0.093586 -0.319175 -0.514306 -0.743013 -0.712210 0.093491
known,1.109501 -0.430051 0.741002 0.629713 0.121174 -0.185072 0.366888 0.181141 0.092838 0.487021 -0.350282 -0.371357 -0.138343 -0.627703 0.741014 -0.293104
feed,0.790806 -0.226582 -0.194096 0.065796 -0.508762 0.031136 0.659620 0.692559 -0.355765 0.249160 0.539040 -0.042044 -0.237141 0.025409 2.165489 0.112231
seems,1.026793 -0.566469 0.967469 0.865531 -0.273423 0.311068 -0.509195 0.617001 0.189371 -0.042637 -0.944409 -1.193139 -0.164748 -0.548499 0.983256 -0.423303
instead,-0.641616 -0.656841 0.386935 1.075043 0.273810 0.268340 -0.677535 0.301403 -0.434076 -0.520333 0.395910 0.343016 -1.019749 0.960048 -0.670983 -0.589188
weapons,0.004172 -0.260941 -0.261937 0.548506 -0.400117 -0.323666 0.500765 -0.139654 -0.152964 -0.043495 0.081252 -0.214074 -0.177332 -0.576318 -0.410353 -0.106532
countries,-0.182384 -0.383244 0.025023 0.614940 -0.628699 0.001845 0.577604 0.027899 -0.155458 -0.248174 0.202626 -0.356161 -0.319664 -0.468166 -0.630772 0.183112
wrong,-0.882033 -0.253292 -0.057101 0.898533 -0.020526 0.023412 0.464192 0.427769 -0.561266 -0.056069 -0.289779 0.847324 -0.430194 -0.131663 0.011582 -0.183772
language,-0.131423 -0.526082 -0.033271 0.832501 -0.261601 0.060005 0.598681 -0.111904 -0.125329 -0.109012 0.096268 -0.321943 -0.321933 -0.717856 -0.349167 -0.153900
head,-0.366691 -0.836641 0.312483 1.039318 -0.311282 -0.141385 0.256918 -0.231797 -0.327629 -0.246052 0.193125 0.030605 -0.342167 -0.551559 -0.549238 -0.362891
seen,1.307409 -0.022331 0.869085 0.377528 -0.009447 -0.678656 0.717881 0.028899 -0.053176 0.277998 0.260453 -0.172425 -0.279188 0.051310 1.517580 -0.322842
course,-0.615637 -0.516756 0.315790 0.114553 -0.678251 -0.151635 0.192625 0.324262 -0.447297 -0.434458 -0.117826 -0.074422 -0.295875 0.126124 -0.426466 -0.001805
period,-0.484771 -0.869855 0.474405 0.362052 -0.560989 -0.046638 0.504411 -0.005342 -0.165331 -0.203349 0.205330 -0.199176 -0.307619 -0.407674 -0.592628 -0.177486
walk,0.775368 -0.231539 0.302315 1.184996 -0.129893 -0.602669 0.120509 0.136846 -0.421314 0.201864 -0.101439 -0.627983 -0.173426 -0.042896 0.517434 0.070354
position,-0.181088 -0.718657 0.144975 0.373757 -0.615370 0.011381 0.364922 -0.031132 -0.356300 0.004740 0.151565 -0.073459 -0.268189 -0.531866 -0.481092 -0.058013
customers,-0.092538 -0.618267 0.400612 0.336535 -0.314750 0.002199 0.631859 0.242661 -0.180062 0.106550 0.142357 -0.302375 -0.119021 -0.721526 -0.425801 0.161951
contact,0.851457 -0.344633 -0.076235 0.475388 -0.471830 -0.026181 0.444300 0.175563 -0.303215 0.293493 0.368635 -0.170525 -0.352446 -0.335169 0.814357 -0.004425
living,0.640257 -0.083351 0.830798 1.267367 0.010686 -0.362267 0.384034 -0.069273 -0.097516 0.368320 0.031018 -0.454099 -0.263707 -0.460319 0.687783 -0.070526
leaders,-0.498113 -0.660493 -0.016126 0.475739 -0.545152 -0.196471 0.495585 0.056061 -0.286575 -0.311225 0.163908 -0.184594 -0.377950 -0.265144 -0.633327 -0.091643
half,-0.622433 -0.013261 0.409974 0.910092 -0.091932 -0.574266 0.255740 -0.468810 -0.532917 -0.148751 0.477487 0.798749 0.194862 -0.187086 -0.036221 -0.153902
%,-0.419524 0.462449 -0.129130 0.002514 -0.258549 -0.250765 -0.194891 0.238615 -0.843532 -0.394423 -0.474065 -0.197846 -0.052793 -0.934093 -0.273017 -0.058049
[,-0.656845 0.915917 0.598898 -0.476637 -0.178796 -0.075611 -1.079680 0.246235 -1.325438 -0.653138 -0.954436 -0.237353 0.209588 -0.670163 0.971792 0.008019
],-1.262999 0.791410 0.285484 -0.473057 -0.331834 -0.336048 -0.695152 0.626548 -0.646498 -0.827493 -0.777893 -0.759560 -0.179778 -0.419862 -0.244415 -0.334667
usually,-0.534120 0.385445 0.056159 -0.026321 0.309815 1.506755 0.162452 0.601798 -1.039299 -0.370184 -0.038227 0.906102 -1.456031 1.086451 0.200103 -0.137895
12,-0.360511 -0.386494 0.058769 -0.021202 -0.434260 -0.674203 0.535171 0.429058 -0.318398 -0.021602 -0.157329 0.495701 0.227676 -0.973482 -0.321400 0.143461
definitely,-0.560997 1.323411 0.337007 -0.086283 0.329259 1.426877 0.460891 0.443603 -0.686448 -0.193048 -0.124370 0.896787 -1.587015 0.788914 -0.788149 -0.205054
lots,-0.052592 -0.916359 0.157782 2.348262 0.094552 -0.380251 -0.035322 -0.398224 0.412347 -1.027555 0.047033 -0.104036 -0.319225 -1.072713 -0.470587 -0.464659
vet,-0.199192 -0.542935 0.275274 0.185874 -0.488384 0.672127 0.541744 0.237414 -0.520036 0.103981 0.341002 -0.203424 -0.601256 -0.518905 -0.467155 0.061811
political,0.768940 -0.190716 -0.735033 0.174260 -0.140539 -0.421590 0.393226 0.149044 -0.456199 0.239271 -0.499967 0.536488 0.474350 -0.923064 -0.132027 0.096622
extremely,-0.324151 0.688682 0.152479 -0.576732 0.410952 -0.347184 -0.087696 0.186975 -0.952784 -0.261167 0.652190 1.371135 -1.135809 0.939198 -0.064804 -0.470834
entire,0.815920 0.327203 -0.963318 0.135430 -0.167315 -0.325025 0.493929 0.380531 -0.680204 0.565449 -0.094419 0.651276 0.366435 -1.243772 0.032383 0.114132
comes,1.001869 -0.568425 0.713199 1.398243 -0.014438 -0.256901 0.191059 0.178622 0.007945 0.078390 -0.342974 -0.835062 -0.093300 -0.136505 0.656701 -0.267821
campaign,0.153996 -0.573510 -0.169708 0.249621 -0.521903 -0.423171 0.419470 -0.091326 -0.247831 -0.050838 0.160699 -0.321894 -0.269052 -0.522681 -0.702165 -0.020875
poor,0.452208 0.390088 -0.790335 0.156941 -0.242714 -0.322685 0.620700 0.452954 -0.210472 0.329970 -0.277409 0.537579 0.193040 -0.949242 0.110061 0.167713
sorry,-0.686601 -0.410082 0.866814 0.280806 -0.257573 0.367838 -0.013647 0.448453 -0.377852 -0.648445 -0.651999 0.724228 -0.517371 -0.757771 0.421011 0.292447
works,0.217743 -0.028283 0.137306 0.710179 -0.364529 -0.567418 -0.027284 -0.121045 -0.378308 -0.162046 -0.132232 -0.817842 -0.429843 -0.350282 -0.093705 -0.084404
control,0.167685 -0.562465 0.219898 0.489296 -0.384344 -0.589503 0.152600 -0.045569 -0.435364 -0.089473 0.124903 -0.478704 -0.055442 -0.335522 -0.035279 -0.021525
makes,1.264459 -0.366998 0.486968 0.482998 -0.367746 -0.180765 0.421810 0.562817 -0.079186 0.243337 -0.283692 -0.634559 -0.050443 0.212106 2.140583 0.002108
response,-0.289601 -0.623226 0.344269 0.142716 -0.654659 -0.180880 0.395241 0.196704 -0.154472 -0.251038 0.259708 -0.059857 -0.425222 -0.557108 -0.683790 -0.084927
short,0.775215 -0.400314 -0.410241 0.095808 -0.097319 -0.521179 0.424703 0.426488 -0.129780 0.151180 -0.341087 0.412004 0.163296 -1.058699 -0.155561 0.122374
subject,0.230542 -0.299107 0.181710 0.105370 -0.599729 -0.555198 0.328240 0.173246 0.468088 -0.000943 0.049499 0.046326 -0.601412 -1.106122 -0.358042 -0.161680
15,-0.094336 -0.284951 -0.340489 -0.185585 -0.498404 -0.570405 0.269629 0.368601 -0.532224 -0.067625 -0.399918 0.539735 0.464811 -1.054129 -0.488738 0.119984
30,-0.104474 -0.149853 -0.475572 -0.120875 -0.531113 -0.593202 0.472370 0.271982 -0.449455 -0.106136 -0.440478 0.619161 0.440723 -0.944644 -0.571417 0.169528
project,-0.231757 -0.871661 0.267606 0.352151 -0.645186 0.177668 0.408340 0.109989 -0.257680 -0.228649 0.288233 -0.300631 -0.430055 -0.433663 -0.584444 -0.018113
website,-0.046243 -0.378249 -0.021432 0.074017 -0.555238 -0.594628 0.510910 0.105332 -0.200390 0.137063 0.398803 -0.375803 -0.402747 -0.621881 -0.591298 0.023256
